0.010656757,0.008265895,0.007683497,0.006183786,0.009001526,0.006153439,0.008352868,0.004086031,0.00755344,0.00922347,0.007322107,0.009935158,0.006762504,0.005682767,0.007328288,0.007501487,0.008051933,0.007280503,0.006844218,0.006330921,0.008697731,0.014319763,0.015446132,0.003508301,0.006369432,0.005008762,0.003607644,0.010060723,0.007229978,0.007989058,0.006513964,0.008439992,0.006997507,0.008944984,0.008772383,0.008527685,0.005648098,0.006987725,0.007437074,0.008289338,0.0074407,0.006778789,0.010436717,0.009353408,0.008669524,0.004061741,0.006461153,0.009990481,0.00756463,0.008961998,0.032050417,0.009749781,0.007162721,0.007462343,0.008387113,0.009217482,0.007080528,0.008403733,0.007366437,0.009118179,0.007754999,0.009290252,0.010129758,0.008003247,0.009175734,0.008489282
-0.017724745,-2.20E-10,-5.17E-10,-0.004619105,-2.11E-08,-0.001225926,2.07E-10,-0.091660854,0.003929658,0.001593683,-0.002309119,2.95E-10,0.002037528,-6.85E-10,4.78E-05,0.00121881,-0.003550288,5.18E-05,-0.000575926,-0.017110305,-1.08E-09,0.006753519,3.35E-09,0.009278377,-0.002624518,-0.001744488,-0.005695029,-2.95E-10,-0.000286239,0.003330661,-0.001089236,-1.71E-10,0.002967299,1.50E-09,-3.45E-10,-7.84E-10,0.014511303,0.001344807,0.001083864,0.001044857,9.40E-09,-2.69E-09,9.16E-11,0.001834763,0.00030279,-0.000425983,4.76E-05,-0.022683551,-0.004405241,-0.000947035,0.001891407,5.60E-11,-1.04E-10,-0.005405785,-0.000318342,-0.000691415,-0.000124388,1.67E-09,-0.000954932,6.11E-11,-0.00200534,0.003270164,1.29E-10,0.004550399,3.14E-10,4.56E-11
0.023884942,6.65E-11,8.33E-11,1.67E-10,7.59E-11,0.00439537,8.80E-11,-9.99E-11,0.031138162,-9.28E-12,0.006921975,5.18E-10,0.009028702,3.87E-09,1.61E-11,1.09E-09,2.49E-10,0.020186142,0.014966052,0.040993006,3.82E-09,0.019995264,4.66E-10,7.88E-10,0.002779001,0.002795128,0.018582533,9.04E-10,1.81E-10,4.70E-11,0.010272373,6.64E-11,1.66E-08,2.14E-11,3.65E-11,0.003933873,0.062124948,3.15E-09,1.45E-09,2.72E-10,0.000105045,1.42E-08,2.12E-12,1.17E-11,8.29E-11,0.101425254,0.020839458,0.059737063,1.71E-09,-2.42E-11,6.20E-09,2.62E-12,3.75E-11,9.12E-09,1.03E-11,4.84E-10,0.007538841,3.66E-12,0.010549804,2.02E-10,1.11E-09,9.72E-12,1.11E-11,0.011762607,8.32E-11,9.66E-12
-0.051398751,2.31E-11,1.24E-10,-5.73E-10,2.42E-10,0.004552383,8.76E-11,2.25E-09,7.66E-09,-3.07E-10,0.02303837,1.95E-10,1.71E-09,1.36E-10,-3.13E-09,0.001424361,-1.16E-09,-5.33E-09,-5.91E-09,-0.036954271,8.93E-11,-0.147881746,5.75E-10,2.57E-09,-3.53E-10,1.15E-09,-7.23E-10,7.62E-11,-2.29E-10,3.53E-11,0.006151082,5.50E-11,-2.23E-09,8.23E-11,3.88E-11,-4.70E-09,-0.001630713,2.06E-09,-1.31E-09,1.09E-10,2.68E-10,1.16E-08,6.09E-12,1.51E-11,1.92E-10,0.111822764,0.032230699,0.024383122,5.42E-10,1.13E-11,3.16E-09,3.87E-12,8.86E-11,1.91E-08,9.08E-13,-0.000563977,-0.00967878,2.81E-11,-0.008398759,-9.35E-11,-1.40E-10,1.14E-11,5.69E-12,-0.007846504,4.46E-11,1.19E-11
-0.003063097,-2.28E-10,1.81E-10,-0.007401139,1.19E-10,0.022726875,-0.001337721,-1.99E-09,-0.002119192,0.001533024,-3.20E-09,-0.00665296,-0.0024219,-0.002328271,-0.003955697,-0.003070318,-0.004490428,-0.003905951,-0.002583068,0.011033304,-0.008710479,-0.026717066,9.08E-10,-6.48E-09,-0.007282266,-0.014886887,-0.00927427,0.006702733,-1.16E-09,1.08E-10,0.003739498,4.52E-10,0.000520656,2.76E-10,1.45E-09,-0.000690784,-0.027582557,-2.74E-09,-0.004753112,-0.005531949,-0.007008315,3.63E-10,2.78E-10,0.000514127,5.00E-11,-0.012826703,-0.009618005,2.94E-10,-0.00215398,2.64E-11,-0.055409068,0.001365143,0.00162215,-0.004378506,2.89E-09,0.001621214,-0.002765038,0.000324083,-0.008305963,-1.23E-11,-0.002308299,0.001374226,3.67E-11,0.000121371,7.92E-10,7.61E-11
3.73E-10,-1.65E-11,4.98E-11,4.00E-10,1.07E-09,3.94E-05,3.13E-10,3.88E-09,-2.00E-05,-7.92E-11,0.010865057,-2.16E-10,-3.95E-10,9.59E-10,-1.23E-10,4.92E-10,6.73E-11,-0.007964024,-5.48E-10,-0.035914662,-0.010228776,0.002191897,6.22E-10,3.05E-10,-8.47E-09,-5.62E-09,8.17E-10,-3.42E-10,1.59E-09,8.65E-11,0.00633727,5.18E-11,0.007406573,1.48E-10,5.27E-11,7.69E-10,8.24E-10,-5.02E-11,3.47E-10,-5.71E-11,1.79E-10,1.28E-09,1.12E-11,-1.90E-12,6.88E-11,0.007919579,0.01394861,5.45E-10,1.56E-09,4.03E-12,2.29E-09,5.04E-12,5.71E-11,-3.32E-10,6.85E-12,-1.43E-09,-6.34E-09,3.12E-11,-0.003555271,1.54E-10,6.78E-10,6.07E-12,1.25E-11,1.01E-09,9.71E-11,3.79E-12
0.007798244,2.46E-10,8.75E-11,7.98E-08,0.008171734,0.021521732,-5.31E-09,6.33E-09,0.008233643,-0.002073091,0.002030131,0.002350501,0.000503823,-0.00593854,2.44E-10,3.02E-09,-5.61E-10,0.003778883,0.001971857,-0.004683616,-3.28E-09,-0.043536112,-1.75E-09,-0.00912309,-0.001255042,0.007647178,-1.27E-08,4.96E-08,-4.62E-09,0.000361968,0.002668049,1.59E-09,0.000471376,0.004337094,0.003055918,0.010549351,0.011468327,0.010952689,1.10E-10,0.005069229,0.003788982,1.86E-09,0.004993385,0.005149711,0.004640144,0.012222424,-0.004266794,-9.67E-11,0.001316562,0.004523756,0.004615669,0.002139964,0.001830716,-9.59E-07,1.34E-10,2.20E-09,0.008599116,0.002915312,0.006955653,0.001758187,0.003146573,0.002403814,0.003063073,0.011133,8.72E-10,9.19E-11
-0.002849602,1.83E-10,-0.000322654,0.000577347,-7.25E-05,0.000167319,0.013816,0.004691764,-0.00083721,0.001843932,-0.000292798,0.000530865,0.000178475,0.002557159,0.000254602,0.000906766,0.000621269,-0.000108637,0.001557576,0.006845268,-0.00060947,0.003683947,-2.98E-10,0.0003676,0.000455827,-2.71E-05,-0.000582531,0.003543654,0.000625056,-4.11E-11,0.001100069,7.48E-05,0.000226826,-2.84E-05,8.08E-05,0.000563887,0.001689412,0.000468468,0.000342255,-0.00011364,0.000101547,0.001136192,0.000469708,-2.78E-11,0.001518488,-0.001984653,-0.000352023,-0.007878875,-1.54E-08,-4.31E-05,-0.023271067,9.77E-05,-0.000592136,0.000105515,-2.50E-11,-3.95E-05,4.10E-05,-9.73E-05,0.002680455,-5.10E-10,0.00065234,8.29E-05,2.14E-12,0.001184682,0.000104127,8.59E-12
0.00062755,-0.000662218,-0.000614212,0.000973384,-0.000440373,-0.000539594,-0.001878631,0.013251761,0.001245397,-0.000742804,-0.001006575,-0.001410728,-1.44E-09,-0.002820437,0.001115254,-0.000741564,-0.000703561,-0.000476369,-0.000557913,-0.00406894,0.000922855,-9.21E-05,4.23E-10,-0.00323317,-0.001591669,-0.004072633,-0.004307541,-0.005100786,0.001014028,-3.69E-10,-0.001904366,-0.000786438,-0.000252019,-0.000601307,-0.000377896,-0.00020973,2.59E-10,-0.001242596,0.000327836,0.000170655,-0.0009093,-0.001142369,-0.001089416,-0.000333032,-0.002147249,0.000895697,0.000256852,0.000979102,-0.001316064,-0.000394893,-1.31E-10,-0.000333235,-0.000554121,-0.00012983,-0.000892808,-0.00074639,0.000935345,-1.22E-10,-0.000322131,-0.000231789,0.000116448,0.000100996,-3.88E-11,-4.93E-05,-0.000982879,-0.000878485
0.003737874,1.88E-10,0.000135188,-7.02E-10,2.85E-10,2.18E-11,4.39E-10,-1.15E-09,0.00109112,-0.002060881,-0.001620884,0.000426938,0.000340335,-0.005545966,0.004915519,2.97E-09,0.000405079,-0.003754845,0.004623939,0.000511919,2.73E-10,0.037065118,1.40E-09,0.009057231,0.001292384,1.65E-09,1.35E-08,-0.002136516,-5.08E-10,1.30E-10,0.010279467,0.002735052,0.007894161,1.81E-10,1.41E-10,0.002555624,0.004179527,-0.01011809,-0.002511012,2.84E-10,0.004658809,-0.008022596,3.62E-11,5.04E-11,3.44E-05,0.043770343,-0.01306808,0.01001316,-0.000627887,8.56E-11,0.005683667,1.11E-11,2.65E-10,-3.19E-10,1.39E-11,0.00139291,0.002982895,6.91E-11,0.009883648,0.001490165,0.000175801,9.30E-11,1.81E-11,-0.003965725,0.000156311,8.49E-11
0.004365675,-7.35E-11,-1.37E-10,-0.027650824,-1.56E-10,0.009029534,2.46E-10,9.90E-10,-0.009212144,-0.006108133,-0.010450279,-0.001170364,-1.07E-09,7.99E-09,0.008874962,-9.05E-09,-0.012320093,-0.010138814,-4.63E-09,0.026962528,-1.31E-09,0.084493994,-6.83E-10,-1.00E-09,-0.015362284,-0.00380432,-0.017405252,-1.68E-09,-1.31E-09,1.17E-11,-0.006061921,-1.53E-10,-0.009843493,-3.72E-11,-2.24E-11,-0.010109408,-0.00930504,-0.000256894,-0.002437415,4.98E-11,-8.42E-10,9.02E-10,4.93E-12,-2.74E-11,-2.00E-10,-0.033468074,-0.026391111,-0.009978088,2.48E-11,-4.12E-11,1.22E-09,3.16E-12,-1.02E-10,-0.013596254,-7.17E-12,-0.005571546,2.62E-08,-1.50E-11,0.003331446,-2.22E-10,-4.62E-10,9.67E-13,1.00E-11,-0.005341226,-6.42E-11,-1.24E-11
5.72E-09,3.63E-11,1.93E-07,3.58E-09,2.95E-12,1.75E-09,-1.93E-10,-6.31E-11,-0.008158945,-1.64E-10,-4.29E-10,-5.27E-11,-2.44E-08,0.000639963,-4.72E-10,3.84E-09,-0.004873296,-0.000736612,-0.002368712,0.024862692,6.91E-10,-0.058728883,3.28E-10,1.04E-09,1.19E-08,7.47E-09,1.48E-09,-1.57E-10,2.45E-09,6.14E-10,0.037236922,1.16E-11,-0.011993068,3.59E-11,7.30E-11,-0.00054003,-8.72E-10,-4.32E-11,-0.004085169,-0.002471073,3.76E-10,-3.40E-09,8.88E-12,-1.21E-11,8.33E-10,0.029252459,-0.002605462,6.97E-09,1.75E-08,-8.12E-11,-4.07E-08,-2.89E-12,2.28E-10,-3.13E-10,3.59E-12,-0.004698391,-0.019672749,3.45E-11,-0.020809482,-8.76E-10,4.50E-10,2.07E-12,7.58E-12,-1.70E-09,1.16E-09,2.15E-11
0.00737528,0.011260181,0.007498856,0.006983573,6.17E-09,0.01319071,3.03E-08,7.40E-11,0.015164099,0.005914608,0.006394675,0.025066484,0.013174645,0.005668749,0.002417804,6.21E-10,0.011644288,0.009144732,0.013145212,0.010270614,0.007404022,-0.046210184,0.025874235,0.006291805,0.001314136,0.002848733,0.01806812,-1.41E-09,0.016506314,1.81E-09,0.014513433,0.015683131,0.011996698,0.017319798,0.01258573,0.00477497,-1.08E-10,0.008785792,0.00632061,0.019451311,0.011403405,0.011869276,9.29E-11,1.75E-10,0.000634896,-0.008528822,0.007791969,1.22E-10,0.014454715,0.013660354,-1.15E-08,2.58E-11,0.015425195,0.005892656,0.007377597,0.012512057,0.016465518,0.003934226,0.01805626,0.002167143,0.015050598,3.57E-11,1.91E-11,0.005440633,0.008205913,0.005003161
4.50E-08,3.04E-12,9.59E-11,-1.42E-10,6.67E-11,-1.36E-09,2.71E-10,2.17E-09,4.15E-09,3.50E-10,0.00071711,5.31E-11,2.73E-09,7.01E-10,-4.06E-10,-0.001230308,0.00110975,-0.00191653,-7.37E-09,-0.000861504,2.00E-09,0.077160484,2.33E-10,-1.66E-10,-3.18E-09,1.16E-08,0.112427122,0.001190886,0.007967021,-1.85E-11,-0.012191936,6.14E-11,0.007035422,6.40E-11,5.82E-11,4.30E-10,0.000444159,3.07E-09,-1.42E-10,5.37E-11,2.47E-09,5.70E-09,9.48E-12,2.02E-11,-8.80E-11,0.055297244,0.007035272,9.30E-11,1.16E-09,3.02E-11,-5.53E-11,5.17E-12,7.13E-11,-2.42E-10,3.72E-12,-0.006943757,0.000134286,5.77E-11,-0.008856456,3.87E-11,-7.83E-11,3.20E-11,6.93E-12,-1.19E-09,2.97E-10,2.05E-12
0.000717733,-1.42E-10,4.69E-10,0.000373315,-0.000380908,1.99E-09,-6.67E-10,-1.67E-09,-0.002125125,-0.00099808,-0.002214565,0.004573778,-0.001122822,0.010759656,-5.93E-11,0.000310589,-0.000215887,-0.003513454,-0.001942002,-0.011170128,-0.00150052,0.003949382,1.82E-10,-0.003460698,7.93E-05,0.001212413,0.013603388,2.88E-09,-0.00206047,4.09E-11,-0.00040299,-3.44E-05,-0.000524352,-0.000462609,-0.000314098,0.000430411,0.022061381,-1.73E-09,-0.000684771,-0.001357045,-0.000638581,0.000857101,-2.79E-11,-4.11E-11,-1.03E-09,-0.004825058,0.001231384,0.001428601,-4.91E-10,-0.002210801,-1.55E-09,-1.42E-11,1.06E-10,-0.000705724,-5.26E-11,0.000297864,-0.002483432,-0.001298218,-0.004341101,-0.00295352,-7.15E-06,-1.82E-10,-4.57E-08,-0.001705071,-0.000868907,-3.12E-09
-2.55E-09,-1.12E-11,-6.08E-12,-1.70E-09,-2.60E-11,1.59E-09,2.52E-10,-2.95E-10,-3.68E-09,0.012073577,-2.97E-09,-5.38E-10,-1.09E-09,6.88E-10,1.16E-09,2.92E-11,-3.97E-10,0.004458419,-4.82E-09,-0.015779097,1.73E-09,0.032778209,-1.41E-10,-8.68E-11,-1.55E-10,-2.53E-09,1.51E-08,-0.007571962,-1.77E-10,-3.13E-11,0.002606743,-3.48E-11,3.50E-10,1.43E-11,-9.78E-12,-2.13E-10,-0.039570989,-1.63E-10,1.64E-09,2.29E-10,-1.75E-10,6.18E-10,1.58E-12,-3.42E-12,1.82E-11,0.10330043,0.004238103,-3.07E-11,-7.46E-12,1.18E-11,-4.24E-09,-2.03E-13,-9.04E-12,-3.07E-10,-3.21E-12,9.23E-10,2.48E-09,-1.03E-11,-4.94E-10,1.68E-10,-2.98E-10,1.38E-12,2.66E-12,-1.12E-09,-3.54E-11,-3.51E-12
0.014218778,1.07E-10,4.66E-10,-1.58E-09,1.92E-08,-0.018896309,-4.81E-11,2.77E-10,-5.76E-09,0.009572105,0.00512165,1.09E-09,0.014871705,-2.71E-10,7.72E-10,0.003305821,1.88E-10,0.011403598,0.014075015,0.00105484,-0.003969224,0.076768513,-2.77E-10,-5.74E-10,-0.009766951,-3.66E-10,5.80E-09,1.28E-10,-1.16E-09,7.95E-10,-0.008259893,1.55E-10,1.77E-09,2.54E-10,1.04E-10,-6.36E-10,-0.02945163,3.54E-10,1.09E-09,0.026088586,6.36E-10,-4.21E-10,1.61E-11,9.58E-11,1.90E-10,-0.055209626,0.040077989,8.80E-09,0.008806843,2.68E-10,3.26E-09,1.40E-11,4.16E-10,0.002109244,6.33E-11,0.008489591,0.006398871,6.51E-11,0.00768815,2.41E-10,4.24E-10,1.05E-10,2.15E-11,-1.10E-09,2.09E-09,2.57E-11
1.26E-09,3.08E-11,1.10E-10,1.22E-09,3.90E-11,8.62E-10,3.36E-10,1.61E-10,1.26E-08,0.009912854,0.008193651,-1.14E-10,0.011583,7.62E-10,2.43E-11,-1.96E-10,1.03E-09,-0.003526074,3.00E-08,0.013683658,-8.22E-10,0.011271483,4.07E-10,-1.56E-09,1.30E-09,-4.30E-09,2.09E-08,1.27E-09,-9.16E-10,7.47E-11,0.030657746,5.51E-11,4.64E-10,3.39E-11,1.28E-11,1.81E-10,1.33E-10,-2.83E-10,-4.65E-10,1.27E-10,7.52E-10,8.15E-11,2.80E-12,1.95E-11,1.33E-10,-0.069022301,-0.008928257,-2.29E-10,-3.66E-11,2.17E-11,-1.06E-09,2.72E-12,4.21E-11,1.57E-09,6.55E-12,5.07E-10,4.88E-09,3.57E-11,2.86E-09,2.22E-10,1.35E-10,1.56E-11,7.65E-12,0.009557356,9.72E-11,1.25E-12
5.14E-09,9.90E-11,1.56E-10,-8.11E-10,2.74E-10,1.29E-09,8.78E-11,-1.24E-09,-0.007122882,-6.89E-10,0.006001458,6.18E-10,3.06E-08,0.018357043,-2.65E-10,-1.74E-10,3.69E-09,0.014391565,5.05E-09,-0.037411649,0.005393998,0.093748574,-4.62E-11,9.09E-10,7.69E-09,-5.91E-10,4.56E-07,3.59E-10,0.009456054,-2.15E-11,0.00605406,1.15E-10,0.008522969,1.40E-10,5.50E-11,3.06E-09,1.12E-10,0.000842497,4.31E-09,-1.63E-10,8.47E-09,0.011676095,9.00E-12,3.25E-11,1.07E-09,-0.030652858,-0.004310829,0.000171393,0.003904579,4.31E-11,3.23E-09,4.37E-13,1.44E-10,0.003477561,2.10E-11,4.87E-10,-0.009407191,2.86E-11,0.006754655,2.12E-10,0.003213699,1.11E-11,8.44E-12,-4.20E-10,1.23E-10,1.33E-11
-0.017353679,3.25E-12,1.15E-12,0.049971515,1.22E-10,0.008826066,4.09E-09,4.39E-10,0.022986219,-0.00238586,-0.001915127,-6.95E-10,-4.84E-10,0.007848012,-1.42E-09,2.93E-09,1.93E-09,0.005781374,0.005555627,0.002387984,2.00E-09,0.019451728,1.08E-09,0.010863961,0.015306918,0.011075942,0.012328229,0.040311922,1.11E-09,1.12E-10,-0.013972913,2.21E-10,-4.87E-10,-3.38E-11,-5.66E-11,-4.56E-10,0.013202813,0.000818454,2.18E-09,0.001704575,0.000266569,0.010292262,3.09E-11,3.40E-11,0.002746397,-0.000565545,0.006069679,3.68E-10,-3.19E-10,-3.20E-11,-0.0849401,2.14E-12,1.19E-10,0.000222692,-2.51E-12,1.81E-09,0.002343381,3.27E-11,0.004650043,3.42E-10,2.93E-10,9.59E-12,1.44E-12,0.012558994,0.000269582,8.92E-11
-0.001626227,-0.000226312,4.40E-11,0.001153101,0.0004286,0.002172591,-1.16E-09,0.009672159,-0.002738097,-0.000220318,-0.000620696,-0.000334327,-0.000148117,0.004476757,-1.56E-10,0.002689524,9.68E-05,0.000669198,0.000714533,0.009716078,0.002642167,0.007899763,3.25E-07,0.003483332,-0.000831698,0.037148411,-0.004714618,0.018932477,-0.001985576,2.89E-10,-0.000340098,1.08E-11,0.002356211,-2.10E-10,4.20E-10,0.001152518,0.007131722,-1.13E-10,-0.002133345,-0.002196126,-0.000593724,-1.71E-09,-1.93E-11,-4.20E-05,0.00084578,-0.000850917,-0.002667442,0.007079722,0.000547771,7.38E-11,-1.58E-09,-1.74E-13,-2.42E-09,0.000493481,-2.11E-10,-0.002257738,-0.00051909,1.03E-10,0.003060684,-2.87E-05,0.001661877,-2.63E-10,-1.12E-11,-0.001686531,-5.68E-11,2.14E-12
0.0254562,-0.001211454,-0.001191172,0.005365731,-0.002503602,0.011006491,-1.32E-10,0.02989864,0.007282257,-0.003378269,1.39E-08,1.73E-09,0.008224324,6.43E-10,-6.69E-12,-0.010280701,-1.01E-09,0.003706006,-0.015642298,0.025758238,0.003547036,0.02469814,-4.92E-10,0.000999613,-4.58E-10,-0.011380841,0.010111124,-6.82E-10,1.24E-09,2.08E-11,-0.002532607,-0.004087737,-3.65E-09,1.04E-10,-5.04E-10,0.007510142,-1.87E-09,0.005081638,-0.000497249,1.56E-10,0.001141354,0.004716438,-2.21E-12,9.98E-11,-0.000834248,-0.00154379,0.00566515,0.030140062,-1.56E-09,-0.000236617,-3.46E-09,-1.05E-11,4.71E-11,-2.66E-10,-2.79E-12,-0.000580337,0.000598198,1.65E-10,0.002024592,-0.000465155,-6.76E-10,1.91E-10,3.96E-11,-0.0053998,-0.002226628,3.10E-11
-0.010166793,-2.62E-10,6.55E-11,-0.012033033,3.09E-10,-0.009810062,-1.24E-09,0.033347325,-0.010447197,5.94E-10,-0.006012052,-0.00400747,-0.001381303,2.41E-10,-3.78E-11,-0.00125397,-0.004048072,-0.011469191,-0.008173854,-0.018333919,-0.002093761,0.085840173,-1.00E-09,-6.93E-10,-0.008708101,0.000275633,-0.01037222,-0.006251048,-0.002992686,-3.81E-10,-0.006679189,6.63E-11,-0.001272037,-2.80E-10,1.01E-10,-0.002799065,-0.01527711,-3.47E-11,-0.001480574,-0.003428132,-0.004153861,-0.009828533,1.63E-11,9.22E-12,-3.53E-09,-0.019125309,-0.005931267,0.03815053,-0.002757873,-0.000696162,0.144711593,9.03E-12,-1.44E-12,-0.00529042,9.09E-11,-0.005808192,-0.003273798,1.82E-11,-0.007153216,-9.44E-11,-0.00310742,-3.40E-12,4.55E-11,-0.007529039,-6.35E-11,-3.24E-11
0.000755192,-2.52E-11,0.000226556,-0.00144983,0.000857714,0.001188136,0.000789446,0.006434355,0.000479215,0.000994441,0.000880127,0.000664441,0.000232939,0.004689357,4.03E-05,0.001574854,0.000746823,0.000875582,0.000275407,0.004054363,0.001640459,0.000447081,0.002682879,-0.000563465,-0.000395148,0.000309655,0.002622429,3.33E-10,0.001244772,7.16E-05,0.000909508,-1.41E-10,0.00047387,0.000137021,0.000458233,-0.001314139,-0.00369404,0.001152464,-0.000554337,0.000906447,0.000510213,0.001250563,-9.88E-11,4.37E-10,-4.52E-05,-0.0010126,0.001744927,0.000883471,0.002073691,1.55E-10,-0.011264663,-7.79E-13,-0.000151932,0.000235084,0.000141838,0.000215899,0.000687895,0.000286341,0.000266958,-7.94E-05,0.000795898,0.00032708,-0.000326997,0.000687246,0.000184353,0.000901995
-0.010568105,0.000542575,0.000519887,-0.00363009,0.000387811,0.00664513,0.009145392,8.35E-09,-0.001502868,0.000994501,-0.000999626,-2.97E-09,-0.003094954,-3.71E-07,-0.001320726,-2.82E-09,5.36E-11,0.001420649,0.001694252,-0.004433359,-0.004730498,0.014070097,1.43E-09,1.49E-09,1.10E-09,1.91E-09,-7.68E-08,-5.93E-10,0.002588124,2.11E-11,-0.00267209,1.03E-09,-0.002946165,3.33E-09,1.83E-10,8.78E-10,0.022065927,-0.000251948,0.001506294,9.49E-05,0.001230257,-0.003059751,2.97E-10,0.000604037,0.001468131,-0.008571741,0.000160549,3.60E-08,-0.001832957,0.000988053,-0.003547616,0.000715566,0.002480914,-1.51E-10,4.97E-10,-0.001831625,-0.00060466,0.001146212,0.000648987,0.000818408,0.00106758,4.56E-10,7.53E-11,-0.002138744,-1.55E-09,8.48E-11
0.001770449,0.002320738,0.003871163,0.021951451,1.68E-10,0.058415739,1.63E-09,8.03E-09,0.019665507,0.008332403,0.003375485,0.012810451,0.005442872,0.010135913,3.87E-10,0.026365804,0.014372018,-1.04E-09,0.018718491,0.016003326,0.004453238,0.028308334,-4.03E-10,0.031680893,0.028826452,0.017687051,0.043750377,0.006811458,0.020452783,1.24E-10,0.007342948,9.15E-09,0.010683515,0.001444078,4.41E-10,-9.35E-11,0.028049657,-2.64E-10,0.006695016,-9.89E-12,0.001561243,0.001564556,2.02E-11,7.92E-11,2.04E-09,0.030458448,0.01321313,0.029112851,-0.001883251,1.16E-10,0.004237888,3.64E-11,0.016591578,0.008609202,0.002028909,0.006539912,0.024124232,3.40E-10,0.017791335,0.002662404,0.001571134,0.000298306,1.48E-11,0.004569114,5.22E-10,3.33E-10
0.004933252,-3.93E-10,-1.01E-10,0.011798386,-1.64E-10,0.002293527,7.25E-09,0.016945701,3.03E-09,0.000665463,6.75E-10,0.001663075,-0.00150027,0.004460778,0.000747499,0.001349136,0.00060981,0.000468704,-0.002466753,0.003066637,0.00056639,-0.019381325,2.86E-09,0.005820743,0.002338661,-5.76E-10,-0.004696024,0.013072286,-0.00070374,-0.000456421,-0.00461629,3.64E-10,0.002347146,-1.17E-10,6.31E-10,0.003887837,-0.001266951,0.000497192,1.73E-09,-0.001008326,0.000173735,-4.21E-10,1.47E-11,-4.77E-10,1.28E-09,0.001729512,0.001279755,0.003217052,-0.001203766,-2.12E-10,0.008524872,-8.42E-12,0.000221126,0.000536137,4.11E-11,-1.05E-09,6.03E-09,6.77E-11,0.004579032,-2.12E-10,-0.00042222,-4.59E-09,1.05E-12,0.003329399,1.36E-10,-3.94E-11
0.020232863,0.012031178,0.011048892,0.008450261,0.009430296,0.009517912,0.009062351,0.035720006,0.009305173,0.012202455,0.008070055,0.01182306,0.011685026,0.025051149,0.005363111,0.006016802,0.011638965,0.004882252,0.009885685,0.009575078,0.012328809,0.043913717,0.030393639,2.50E-09,0.004043512,0.003506657,0.057769749,0.010818341,0.003131621,0.004748864,0.006579467,0.01419614,0.005585374,0.01245509,0.005334674,0.008260201,0.024539771,0.011910888,0.010051451,0.00309346,0.003569333,0.012396039,0.010314608,0.008850509,0.009058045,0.029624792,0.010139994,0.038048013,0.004715898,0.009362816,0.010599865,2.38E-10,0.00603601,0.008603925,0.00622895,0.013581304,-7.44E-10,0.008241323,4.27E-10,0.009702238,0.008046834,0.003905233,0.000887258,0.009693555,0.00372206,0.009789103
0.002462191,-1.93E-09,-0.000146574,0.000840101,0.000319323,0.003941187,0.000423044,0.001823078,-0.000386794,-0.001101323,-0.000259461,0.000187691,4.62E-05,-0.006886647,-0.000112691,0.002313762,-0.001198702,-8.75E-05,0.000980492,0.002144604,-0.000140903,0.002515613,-5.03E-09,-0.002338692,0.006631313,-0.003987785,-0.002336194,0.003992671,-0.000294674,7.72E-05,0.001379303,7.41E-11,-0.001936455,-0.000266184,-0.000127431,-0.000130914,0.016466095,0.000316912,0.000307685,7.13E-10,0.000464748,-0.000421792,6.01E-10,0.000224555,-0.00026539,0.005747723,-0.002816345,-0.007716216,-0.000702589,2.65E-05,0.011081338,6.33E-11,0.002760219,0.001039664,1.08E-11,0.000311465,0.000427062,5.98E-05,-0.000827894,7.75E-05,-0.000534578,4.19E-10,-1.87E-06,-2.37E-05,7.90E-09,7.31E-11
-0.017421976,8.24E-11,3.33E-09,0.004508609,2.84E-09,0.009567504,1.49E-09,-1.11E-09,0.010291164,0.013780689,0.011474734,4.24E-11,0.001857204,3.95E-09,-4.72E-10,1.79E-11,3.89E-10,0.012420633,0.005356642,0.005077422,7.31E-09,0.025520864,7.74E-10,0.032909748,0.012923357,0.015541418,-0.025809167,2.40E-09,4.55E-09,1.34E-09,-0.004341956,5.80E-10,0.007463133,7.36E-10,2.25E-10,1.77E-09,6.27E-10,-6.03E-10,8.62E-10,0.000383197,0.005358313,0.007163151,2.76E-11,1.03E-10,7.46E-11,0.038345458,0.003281015,-0.018364128,0.005065585,-5.14E-11,-3.49E-09,2.67E-11,2.36E-08,0.000828442,-4.95E-12,0.001612069,0.002481581,4.74E-11,0.010177494,-6.42E-10,0.001861088,2.85E-11,8.90E-12,-1.16E-09,0.004240481,8.33E-11
2.02E-09,2.31E-11,9.10E-11,1.91E-11,1.71E-10,-1.58E-09,-9.80E-11,4.02E-09,-1.23E-09,-1.42E-09,-1.52E-09,7.88E-11,-3.53E-09,5.45E-10,-1.93E-11,-3.40E-10,-5.07E-10,-4.40E-08,-1.22E-09,-0.00270067,4.44E-09,0.099265746,3.38E-10,3.99E-10,-1.60E-10,0.023165234,-5.23E-09,6.06E-10,3.38E-10,1.84E-11,0.010654773,1.09E-11,-7.99E-10,9.67E-12,1.47E-11,3.67E-09,4.80E-11,5.94E-10,1.34E-09,-4.80E-11,-3.79E-10,2.52E-10,3.82E-12,-4.97E-13,1.32E-10,0.010877022,-0.01649447,0.042645672,3.84E-10,7.79E-12,-5.21E-08,2.98E-12,5.70E-11,-2.29E-10,6.68E-12,3.28E-10,-0.013119994,2.14E-11,0.027763821,-1.88E-11,7.55E-10,1.01E-11,6.95E-12,5.11E-10,1.11E-10,1.30E-11
-5.00E-08,5.97E-11,4.66E-10,-6.16E-10,4.14E-10,0.006898144,5.89E-10,-8.62E-10,1.55E-09,-0.003483587,0.006385746,-2.30E-10,0.002090941,1.22E-05,2.25E-10,0.000934005,8.44E-07,0.002621657,0.002752806,0.020156368,0.016017127,0.031843597,2.65E-10,1.97E-09,0.003164542,-3.51E-09,0.107927218,-6.64E-12,0.004391569,1.12E-10,0.030345664,4.19E-10,1.08E-09,1.48E-10,1.06E-10,0.008735464,-2.47E-09,0.001175536,0.002073601,4.59E-11,0.008639851,4.53E-12,1.24E-11,1.08E-10,4.66E-10,0.005432916,0.041131742,-1.09E-09,0.004688608,9.59E-11,-1.78E-10,8.38E-12,2.00E-10,0.000110446,2.22E-12,-1.02E-09,-2.23E-09,1.56E-10,-8.91E-10,3.88E-10,2.34E-09,2.66E-11,3.07E-11,-2.98E-09,0.007745002,2.22E-11
-8.38E-09,-1.92E-11,6.15E-11,3.95E-10,2.63E-12,-2.13E-10,3.98E-10,1.13E-09,-0.034803543,-2.39E-09,-1.50E-10,3.24E-11,-3.83E-08,1.13E-09,1.63E-10,-1.55E-09,-2.17E-10,0.000931556,-1.25E-08,-0.005637519,1.89E-09,-0.02450103,-1.70E-10,1.33E-10,3.15E-10,-1.38E-10,0.003469671,-3.50E-10,3.09E-10,3.31E-12,0.015485289,1.43E-10,-1.24E-07,3.87E-11,1.06E-11,6.26E-10,0.053945626,3.11E-10,1.15E-11,1.11E-10,1.71E-10,0.000307678,2.54E-12,1.10E-11,9.96E-11,0.125996895,-0.013582444,0.032578302,-1.94E-10,2.98E-11,9.85E-09,3.37E-12,3.66E-11,-2.61E-10,2.08E-12,1.55E-09,-0.003288047,1.85E-11,-0.00740687,-2.14E-10,-7.49E-11,1.30E-11,3.08E-12,9.35E-10,-7.41E-12,-2.59E-13
-1.85E-09,6.43E-11,4.47E-10,3.49E-09,1.97E-10,2.19E-10,8.11E-10,6.49E-08,0.035763245,2.69E-10,0.002112568,1.46E-10,0.01934478,0.013704656,7.88E-11,0.012136213,1.77E-10,0.012195549,-1.22E-09,-0.005536774,-2.02E-10,0.003274531,5.54E-10,3.99E-09,0.027048173,1.32E-09,0.011460985,7.47E-10,1.08E-09,9.54E-11,-0.00862142,1.90E-10,2.40E-09,1.15E-10,8.04E-11,3.77E-10,6.93E-10,1.81E-09,2.32E-09,0.016954948,0.010470755,0.034414715,1.02E-11,4.05E-11,7.59E-10,0.057998813,0.025621697,1.81E-09,7.62E-11,5.41E-11,-1.91E-10,7.88E-12,1.80E-10,0.005348723,1.48E-11,0.00047657,0.008950355,5.72E-11,-0.013712831,7.37E-11,0.005769984,3.82E-12,4.21E-12,-7.19E-10,7.84E-11,2.15E-11
1.18E-09,9.11E-12,6.36E-10,-3.67E-09,9.73E-10,-8.32E-10,-2.90E-10,-6.14E-10,0.001887864,0.003495672,2.52E-09,-2.29E-10,3.20E-08,4.88E-10,3.41E-09,-2.96E-10,-8.17E-11,0.003108527,0.001637939,0.004689915,0.002720372,0.070010972,-6.62E-10,6.33E-10,7.34E-09,9.01E-10,-3.54E-09,-4.86E-10,0.008512039,7.43E-11,-0.004077841,1.48E-10,0.001241941,3.62E-10,1.87E-10,-0.002341923,-8.78E-11,6.06E-10,5.86E-09,-1.10E-11,5.67E-10,8.00E-11,2.25E-11,1.80E-11,4.40E-10,-0.027601769,0.012345438,0.006787822,2.84E-10,1.58E-10,1.07E-07,6.04E-12,1.06E-10,-0.002331934,2.13E-11,8.12E-09,0.0178876,3.63E-11,0.000639842,1.28E-10,3.44E-10,3.02E-12,6.49E-12,-2.48E-08,-1.32E-11,1.07E-13
-8.49E-09,-8.26E-11,5.67E-11,9.19E-10,-4.09E-11,-0.005004585,2.65E-10,0.069794903,-0.00025162,-0.008354129,0.003398541,4.88E-10,0.000338277,-2.49E-09,-1.60E-09,-1.90E-08,-5.38E-09,3.36E-09,0.005052007,-0.013477693,3.25E-09,-0.009703677,1.56E-09,-3.90E-10,1.24E-10,-0.000950376,0.004793735,8.58E-10,-2.23E-10,-9.03E-11,0.017439645,-1.20E-10,-6.04E-09,2.02E-11,1.04E-10,-7.73E-09,-0.02570709,5.10E-10,7.39E-11,-1.54E-10,9.01E-10,8.13E-10,-3.06E-12,-4.37E-11,-2.00E-10,-0.034200445,0.007748788,2.10E-09,2.05E-10,-1.27E-10,-1.52E-10,-3.84E-12,-8.29E-11,7.42E-10,-1.48E-12,-8.02E-10,1.42E-09,7.46E-12,-0.014001057,-0.001239284,-3.80E-10,-3.81E-11,-6.59E-12,-8.31E-10,-6.23E-11,-1.85E-11
-1.70E-09,4.44E-11,9.07E-11,5.18E-10,-2.03E-11,-0.011012018,-1.42E-09,-1.82E-09,2.62E-10,-4.81E-09,0.016788121,-9.03E-11,1.85E-09,3.94E-10,2.34E-10,0.007894433,5.70E-10,-0.002413767,0.009164868,-0.003484971,0.005345824,-0.014525147,3.37E-10,2.72E-10,0.017385794,-1.86E-09,3.69E-09,-1.69E-10,1.71E-09,9.38E-12,0.006339023,7.74E-11,0.012040932,1.03E-10,1.88E-11,0.0087078,0.017316668,4.22E-10,0.000630416,1.31E-10,-1.83E-10,0.010139512,1.14E-11,4.87E-11,1.11E-09,0.055274394,0.005125828,1.02E-10,6.39E-10,4.57E-11,8.92E-10,4.50E-12,5.75E-12,0.001942229,3.47E-12,3.14E-10,-0.00112634,1.20E-11,-0.00508183,-7.57E-11,0.009471291,2.06E-11,1.67E-11,6.54E-09,1.95E-10,2.62E-11
1.52E-07,2.07E-13,-9.96E-05,0.002492286,-3.03E-09,-0.002445035,-1.31E-09,-0.004695348,-0.000644991,-0.000355383,0.000673313,0.000550784,3.79E-05,-0.001438403,0.000581738,-0.001842181,-0.000619469,0.00028074,-0.001138299,-0.002932737,-0.000550708,-0.003817391,0.003474132,8.13E-10,0.002967639,0.00092335,0.004437047,0.005421488,-0.00144559,0.000782742,0.000961468,-1.46E-10,0.001481708,0.000854715,0.001612918,-0.000367724,0.012352287,-0.00085777,5.25E-05,-0.001265109,-0.000331666,2.00E-10,0.001198177,-0.000289463,0.001390743,-0.001724894,-0.003761173,0.000293153,0.001656269,1.68E-10,0.01025626,0.000370666,7.80E-09,-0.000180687,0.00054563,0.001109764,-0.000522426,0.000116454,-0.001063508,-4.70E-05,-0.001497723,-2.54E-11,7.78E-11,-0.000958614,-9.74E-12,0.000231815
-0.011500286,5.20E-11,3.88E-09,-0.005423781,0.000672537,-1.13E-09,8.31E-10,5.29E-09,0.017371666,2.46E-10,0.000151954,2.39E-09,8.22E-05,1.52E-09,0.00732723,8.66E-09,0.00675173,0.000305914,0.008733299,0.026810937,-4.03E-10,-0.036182475,3.99E-10,5.34E-10,-1.04E-09,-6.77E-10,2.68E-09,1.82E-10,0.002701268,0.000195804,0.002984553,1.36E-10,-1.17E-09,0.002245418,2.92E-10,3.15E-09,0.009938693,0.02281319,9.51E-10,-2.65E-12,0.009906281,-2.90E-09,4.31E-11,1.73E-10,5.09E-10,0.040282567,-0.01157516,1.99E-10,0.005059027,4.46E-10,-5.84E-10,3.16E-11,0.001646824,-1.35E-09,2.03E-11,-0.003400048,-0.002931928,1.08E-09,-0.003123942,1.23E-10,3.28E-10,2.17E-10,1.69E-11,0.000846247,0.00023894,3.36E-11
0.001907643,0.000378558,1.58E-10,-5.56E-09,-1.11E-10,0.008052765,6.44E-10,1.59E-09,0.006739618,0.001135717,0.003641124,-0.004780255,-2.47E-09,0.000757354,4.40E-10,0.007913754,0.004629139,0.006615375,-2.59E-09,0.003608333,0.005120319,-0.015529942,5.95E-10,-0.007540076,0.000837475,3.34E-10,-0.022826013,0.029234557,0.000858439,3.92E-11,-7.32E-05,9.94E-11,0.00316165,6.79E-11,3.19E-11,3.87E-09,-0.013594243,0.003513707,0.04689815,1.73E-10,0.002727492,0.00299266,1.35E-11,2.10E-11,-1.08E-10,-0.016772234,-0.0013244,0.014313962,0.006000098,1.07E-10,-2.15E-10,2.28E-12,-3.14E-10,7.51E-09,9.71E-11,0.000974475,0.006436511,9.67E-11,0.003406702,0.008796612,0.004031927,-9.19E-12,-1.96E-11,0.01266859,0.003458052,6.85E-11
-8.65E-09,3.71E-11,3.64E-10,-1.21E-09,1.86E-10,-6.83E-10,6.11E-10,1.33E-08,0.018112297,3.59E-10,-5.83E-10,1.89E-09,-1.58E-09,-8.07E-08,1.13E-10,-1.05E-07,0.00219144,8.50E-11,0.009935415,-0.02099896,-0.010760258,0.007435275,4.61E-10,-5.42E-10,-0.002999255,-2.72E-09,-4.09E-09,7.63E-11,9.21E-09,4.07E-10,0.01170358,2.92E-10,-1.83E-09,1.82E-10,8.63E-11,1.39E-09,0.003602214,9.58E-10,7.96E-10,0.014750312,-5.67E-11,-1.38E-08,1.53E-11,7.62E-11,6.02E-10,-0.035837189,-0.008512423,-0.022113745,0.004341282,2.81E-11,0.030782308,8.57E-12,6.74E-11,-8.31E-10,1.46E-11,-1.60E-10,-0.001683614,2.67E-11,0.003595128,1.05E-09,0.007897522,2.54E-11,1.43E-11,6.08E-09,1.72E-10,1.79E-11
0.016869147,5.91E-11,1.52E-09,1.26E-09,0.002949222,-1.59E-11,3.77E-10,1.03E-09,-1.46E-08,-1.29E-10,1.08E-10,1.46E-11,-4.28E-11,6.69E-10,-2.16E-10,1.86E-09,9.01E-10,0.008489566,0.004706831,-0.002584185,-3.99E-09,-0.069980725,1.90E-09,1.89E-09,-0.001854313,-0.005272817,-0.020976343,-2.53E-08,1.66E-09,7.74E-11,0.009291111,5.88E-10,0.009544719,3.17E-10,8.78E-11,0.003461572,4.17E-09,-1.32E-10,5.28E-11,-0.002964517,0.009959898,0.006381046,1.99E-11,6.72E-12,1.03E-10,-0.03872572,0.015235019,0.047367543,2.49E-10,6.01E-11,-2.77E-08,1.50E-11,4.07E-10,-4.27E-09,1.06E-11,-6.10E-10,0.001704615,8.85E-11,0.013727598,0.00268894,0.005829135,2.22E-11,5.20E-12,-0.001862865,1.52E-09,2.54E-11
8.34E-05,1.10E-10,-1.47E-10,0.016232725,1.21E-09,-0.003556307,2.24E-09,6.43E-09,-0.001805753,0.009405047,0.008672379,0.00662027,-0.001203673,1.62E-09,1.04E-10,0.011386539,0.004862182,0.001875702,0.015220483,-0.002170715,0.014465328,-0.020925543,9.18E-10,0.03116038,0.002269524,0.006007997,-0.002455357,3.30E-10,9.43E-09,2.09E-10,0.005794939,8.39E-09,0.006758089,1.85E-09,2.20E-10,1.10E-08,0.000319811,0.002419637,0.011840711,0.011302954,0.003052454,0.033112446,2.80E-11,6.57E-11,2.16E-10,0.015439858,0.006125066,0.018949947,0.00534024,8.07E-12,-1.82E-09,3.80E-11,0.010332242,0.003344543,8.82E-12,-0.001538028,0.00760057,-3.72E-11,-0.00248815,1.30E-09,2.74E-10,3.02E-11,8.98E-12,0.00449755,2.42E-10,2.85E-10
0.013373445,-8.79E-11,-6.90E-11,-8.83E-10,-1.55E-10,-5.40E-09,2.94E-10,-2.09E-10,0.006919415,0.015731211,-1.15E-09,1.35E-11,-0.010467913,8.92E-10,0.011413179,-0.008737911,-1.63E-09,-0.018713184,-0.002479836,-0.015033864,-0.024409933,0.055634127,-5.52E-11,-0.009537045,-1.40E-09,-0.019104029,0.002943286,-4.09E-10,1.10E-11,-4.67E-11,-0.016490884,-3.92E-11,-0.006188596,-1.73E-11,-1.27E-11,-2.23E-09,-2.05E-09,-0.012158032,-0.002487185,-0.000765357,-1.46E-10,-3.13E-09,1.05E-11,1.40E-11,4.16E-11,-0.016285453,-0.011007271,-1.14E-09,-0.004442981,-3.38E-11,3.37E-09,1.47E-12,-1.63E-10,-0.014993069,-5.58E-12,0.009998483,0.011713721,-2.30E-11,-9.96E-05,-2.10E-10,-0.00949616,1.91E-13,5.04E-12,-0.016697886,-1.63E-10,-1.05E-11
-0.031624269,-2.02E-11,4.51E-11,-5.05E-10,3.66E-11,-3.66E-09,-1.57E-10,-2.27E-09,-4.84E-10,6.83E-10,-0.00061694,-9.49E-11,-1.96E-10,-2.87E-10,4.79E-11,4.96E-10,4.04E-10,1.87E-09,-0.005639595,0.013574231,1.67E-09,0.188548324,-2.24E-10,-2.15E-10,2.41E-09,-1.11E-09,1.65E-09,-1.37E-09,2.57E-09,3.19E-11,-0.014738023,3.65E-11,6.13E-09,3.36E-11,5.42E-12,1.55E-09,2.14E-10,-7.15E-10,-5.24E-10,-3.59E-11,1.61E-10,-2.20E-09,6.06E-12,2.70E-11,1.24E-10,-0.084661305,0.009053212,-0.035790138,4.04E-10,2.43E-11,1.56E-10,8.02E-13,-1.95E-11,-7.69E-10,1.62E-12,3.79E-10,-0.006320302,8.09E-12,0.003015766,1.50E-10,-2.89E-11,4.16E-12,2.61E-12,3.45E-10,-1.77E-11,2.57E-12
-7.42E-09,-3.81E-12,1.11E-10,-0.006406814,2.61E-10,5.62E-11,2.03E-10,1.26E-09,-5.07E-10,1.57E-10,-0.006260783,-6.93E-11,3.02E-09,-1.03E-10,6.16E-11,-3.55E-10,-7.69E-10,-0.009402999,0.000315565,-0.007268382,-1.71E-10,0.087976515,-9.61E-11,-0.005524103,1.24E-09,-2.50E-10,0.083813797,2.07E-10,-1.37E-09,-3.95E-11,0.015608833,6.96E-11,-0.001636426,9.02E-11,2.19E-11,-0.005653659,-0.115008775,1.22E-10,-3.68E-10,6.22E-11,1.73E-09,1.30E-09,3.45E-13,-3.59E-12,3.64E-10,-0.091950881,0.005428182,0.03782598,9.30E-09,-1.51E-11,2.78E-09,9.39E-13,4.98E-11,9.15E-10,-1.40E-11,-0.004118183,3.37E-10,2.56E-12,0.008248754,-7.41E-11,1.40E-10,-1.22E-11,-2.04E-12,9.74E-10,-5.84E-11,-1.01E-11
0.001645238,-0.0001279,-1.93E-11,-0.006613815,0.000985737,0.001650118,-0.004748039,0.00869049,0.00248706,0.001855921,0.001838592,5.68E-09,0.00144518,0.005238885,-0.000234636,-0.00026904,0.000285563,0.000308663,-0.000159456,0.003179552,-0.001181051,-0.003014696,7.27E-10,-0.002799448,-0.000773614,-0.001720298,0.001485185,0.002601106,0.003206272,-0.000250689,-0.000597556,6.80E-10,0.00021567,-3.93E-10,-0.0009428,-0.000542387,0.020660907,0.001834529,0.001127732,0.00199258,-0.000419229,0.001649422,0.000311124,0.001158387,-0.000685902,0.0100098,0.002051585,-0.001926617,2.08E-11,0.000231369,0.000157405,0.00010157,1.27E-09,0.000516304,8.15E-12,0.000878396,-0.000868626,0.000744295,-0.000904945,5.59E-08,-0.001429281,0.000130556,0.00137373,0.000721474,-1.03E-10,9.63E-05
-0.00225233,6.22E-11,1.17E-09,0.009335516,1.41E-08,0.012785838,1.40E-09,5.15E-09,-0.002644563,6.96E-10,-6.22E-10,-2.51E-10,-0.003902199,0.010856796,-0.000217179,4.76E-10,1.30E-09,-1.10E-09,0.001276921,-0.061064637,0.012453569,-0.030920399,-1.71E-10,0.04907775,4.06E-10,8.89E-11,0.021423153,-1.16E-10,-3.46E-10,6.29E-10,-0.005972857,2.63E-10,4.77E-10,2.83E-10,1.50E-10,-1.33E-09,-1.87E-10,-7.72E-10,-0.002170846,0.002597273,-2.66E-11,-3.01E-09,1.97E-11,1.54E-10,6.03E-10,-0.002375725,0.015015657,-0.007157122,-4.99E-10,4.21E-11,5.85E-08,1.41E-11,4.30E-10,-1.15E-09,2.61E-11,1.38E-10,0.000198878,1.26E-10,-3.08E-10,2.35E-10,-5.49E-11,3.62E-11,2.53E-11,0.005239203,1.47E-10,2.49E-11
-0.000238339,2.05E-11,-0.000431604,0.00118563,-0.000647084,-0.002709757,6.46E-09,3.06E-08,-0.000658661,-0.001389879,0.001863681,-0.005139473,-0.000512116,-0.000912735,3.96E-10,-0.000572858,3.69E-10,0.001360375,-0.00102863,0.002135591,-0.000827263,0.012698561,-2.98E-10,0.0020086,0.00102512,0.002885398,-0.00116239,0.000544792,-8.81E-05,1.36E-11,-0.001247814,-0.000851814,-0.000155812,-0.000821235,-0.000320985,-0.000494564,0.00017249,0.000427967,-0.00015514,0.001409838,0.000926851,-0.001186627,-2.11E-10,1.22E-10,0.00013526,-0.006710882,9.92E-05,0.013362479,0.000240003,3.15E-11,-0.009429236,2.31E-10,1.32E-10,-0.000489768,-0.000429517,2.22E-05,-0.000464584,-0.00090176,0.000816223,2.15E-10,-0.000584053,-0.000257164,1.05E-10,-0.001380784,0.000324871,-0.000322732
-2.40E-09,6.57E-11,1.75E-10,-1.45E-10,3.36E-10,2.88E-08,-4.27E-10,4.93E-09,-1.77E-09,-0.003138054,-2.49E-11,1.74E-10,0.001603541,-1.60E-09,5.28E-09,2.28E-08,6.17E-10,0.027784507,6.53E-05,0.024290958,4.03E-10,0.042513055,1.55E-10,4.58E-10,2.69E-09,8.20E-09,0.057728043,6.35E-11,1.26E-08,7.99E-11,0.02203831,2.22E-10,0.030118632,1.26E-10,5.87E-11,0.005946596,3.47E-10,8.88E-10,5.54E-10,3.12E-10,-1.34E-10,2.64E-08,1.25E-11,3.54E-11,2.00E-10,-0.009306787,0.01109182,-0.06007333,4.24E-09,1.23E-10,1.36E-09,7.00E-12,1.47E-10,0.001607805,1.20E-11,2.37E-09,2.39E-09,3.83E-11,7.42E-09,1.29E-10,0.00911932,1.23E-11,8.06E-12,1.83E-11,2.02E-10,7.36E-12
-5.07E-08,3.98E-11,8.43E-11,-9.17E-10,1.34E-10,-6.99E-10,3.03E-10,9.70E-10,2.09E-08,1.81E-10,0.000763318,-1.53E-11,1.02E-12,1.49E-09,8.28E-10,1.56E-09,-2.22E-10,-0.001549861,1.11E-09,-0.015452372,1.55E-09,-0.010227477,8.18E-11,2.66E-10,-1.04E-09,8.31E-10,-3.70E-09,3.58E-11,8.06E-10,1.26E-11,0.063878833,1.05E-10,-4.44E-11,1.87E-11,2.64E-11,-2.36E-10,1.11E-10,1.14E-10,-2.38E-10,-1.23E-10,1.46E-09,-1.39E-09,3.16E-12,1.39E-11,2.10E-10,0.025094058,-0.012060503,5.06E-10,-4.13E-10,1.85E-11,-6.35E-10,6.35E-13,2.42E-11,7.91E-10,7.25E-12,-5.20E-10,0.003214937,1.61E-11,0.009793974,2.32E-11,2.21E-10,6.82E-12,1.41E-11,2.38E-09,7.97E-11,4.68E-12
-0.001454584,0.000455369,0.000183298,0.00010593,0.000184811,-5.98E-05,0.001386398,-0.001755633,0.000464653,-6.66E-05,-7.94E-05,0.000943687,9.85E-05,-0.000823734,-0.000472007,0.000179882,-0.000106517,-4.64E-05,0.000464548,-0.000767269,-1.30E-05,-0.002772293,-0.003839022,0.000517018,0.000121833,-0.000328257,-2.78E-06,-0.000818176,1.86E-05,-2.63E-05,3.33E-05,-5.95E-05,1.91E-05,9.80E-05,7.57E-05,0.000346317,4.18E-10,0.000234696,2.62E-05,-0.000113585,-0.000189983,-0.000138533,-0.000266294,-0.000130244,4.58E-05,0.002352442,0.000277105,0.003768665,-0.000214264,7.40E-05,0.023761645,-5.11E-11,0.000194483,0.00031052,0.000387783,0.000171979,0.000195258,8.96E-05,-0.000706329,0.000112875,-3.91E-05,8.43E-05,-0.000598924,2.22E-06,-6.88E-05,-5.07E-12
4.13E-09,1.02E-11,2.94E-11,-1.51E-10,-1.64E-11,9.13E-10,9.08E-11,8.54E-10,-2.47E-08,-3.37E-07,2.59E-10,-1.43E-11,-1.55E-09,-8.26E-11,1.60E-11,5.20E-10,6.24E-12,-8.89E-10,0.004062813,-0.023719219,-3.84E-09,0.315434494,-1.73E-11,2.80E-10,-6.90E-10,-1.88E-09,0.061848308,-2.20E-10,2.89E-10,3.82E-11,0.032807527,3.99E-11,-5.73E-10,3.13E-11,2.27E-11,3.97E-09,-1.81E-10,-1.09E-10,4.57E-10,4.48E-11,-3.81E-11,1.24E-09,5.91E-12,1.30E-11,1.06E-10,-0.029157909,-0.028250639,2.22E-10,1.07E-09,2.76E-11,-5.06E-09,3.03E-12,-4.05E-12,-1.51E-10,1.63E-12,1.14E-09,0.00385745,5.11E-12,0.002583629,3.36E-11,-6.12E-11,9.66E-12,6.89E-12,-5.72E-09,-1.82E-11,1.74E-12
-0.024427854,-1.01E-11,3.61E-10,2.96E-10,7.66E-10,-0.015199886,-3.56E-10,-7.93E-11,-0.014850472,-4.84E-08,-9.22E-05,0.005768986,-0.002577969,6.99E-10,0.004502381,9.11E-09,0.001416103,-0.009769818,-0.00822413,-0.028327537,4.89E-10,-0.023898762,-6.70E-10,-4.52E-09,-1.96E-11,0.018691077,-0.03055672,-9.73E-10,-1.64E-10,1.53E-10,-0.016137495,8.92E-11,-1.33E-10,1.79E-10,3.17E-10,-0.000794146,-0.014027269,1.06E-09,0.001120993,-6.70E-11,-2.36E-11,-2.06E-09,1.50E-11,8.58E-11,1.01E-10,-0.002268021,-0.017362383,-0.003008739,4.61E-10,1.31E-10,7.70E-10,1.50E-11,7.13E-10,-7.22E-10,6.01E-11,0.002209375,-0.005074586,7.73E-11,-6.35E-09,0.0013356,0.002301202,3.25E-11,8.24E-12,-1.26E-09,1.50E-05,1.62E-11
0.040578317,1.27E-10,9.80E-11,3.03E-09,9.05E-12,0.034445712,1.06E-09,7.55E-10,0.020829307,2.58E-09,0.00951951,3.57E-09,0.043102361,2.02E-09,2.42E-10,0.01344511,5.83E-10,0.057837356,0.019995865,0.07707839,0.011178215,0.041264012,3.57E-10,1.21E-07,0.029491793,0.015793723,6.29E-09,0.00048443,0.011301187,3.49E-11,0.080727776,1.59E-10,0.062129947,4.76E-11,5.24E-11,0.017381647,0.0099961,5.53E-08,0.006800367,4.58E-10,0.017122446,3.22E-10,4.01E-12,3.33E-11,2.32E-10,0.011005187,0.018283136,0.061924765,5.27E-09,6.99E-11,5.45E-09,2.91E-12,6.42E-11,0.031671241,1.90E-11,0.024850214,0.029613487,2.25E-11,0.011321737,-4.66E-12,2.55E-08,4.10E-12,1.53E-12,0.028671515,2.48E-10,2.42E-11
-6.21E-10,2.58E-11,6.78E-11,1.35E-09,1.78E-11,-1.32E-09,3.22E-10,-1.55E-09,0.002744804,5.17E-10,4.20E-09,3.55E-11,0.011805006,1.60E-09,4.09E-10,8.55E-10,1.14E-09,0.036343183,1.91E-08,-0.04054776,0.037010503,0.103759851,2.01E-10,-1.86E-10,0.01900991,-1.71E-10,-2.63E-08,6.32E-10,9.05E-10,4.70E-11,0.064718474,8.43E-11,2.18E-09,5.38E-11,4.01E-11,8.94E-09,-5.59E-11,4.98E-11,1.19E-09,1.95E-10,1.22E-09,3.08E-08,1.38E-12,2.31E-11,5.73E-11,0.05147818,0.055125125,3.76E-10,7.86E-10,4.29E-11,4.01E-10,4.22E-12,6.34E-11,8.80E-10,2.11E-11,4.70E-09,0.027112086,1.41E-11,0.022202036,1.45E-10,2.39E-10,6.04E-12,1.07E-12,0.021130304,6.47E-11,1.05E-11
0.000877764,-1.84E-11,4.22E-11,-3.39E-10,2.63E-11,-0.006773597,-1.13E-10,3.99E-09,0.001608061,1.20E-08,-3.77E-09,-1.75E-11,-2.94E-09,5.99E-10,3.48E-12,-2.05E-09,-3.95E-10,0.007925098,0.022294132,-0.005079153,2.15E-09,0.031173069,4.12E-10,-3.67E-09,-0.001099937,-0.000166526,0.018823222,6.20E-11,-2.60E-10,-8.79E-12,-0.02059021,-1.91E-11,-7.59E-11,-1.42E-11,3.70E-12,1.92E-09,-9.96E-10,-7.57E-10,9.30E-10,6.68E-11,-3.09E-10,6.13E-09,5.19E-12,2.50E-11,3.09E-11,-0.013971689,0.000176954,-7.28E-11,-8.31E-10,-2.02E-11,2.51E-09,1.63E-12,6.70E-11,-4.64E-10,2.96E-12,-4.49E-10,-4.68E-10,9.67E-12,-0.007842373,3.08E-12,8.49E-11,-3.32E-12,2.11E-12,8.89E-10,-2.06E-11,1.61E-12
-1.36E-08,4.77E-11,5.03E-11,6.85E-10,7.57E-12,1.59E-09,3.84E-10,7.48E-10,1.02E-08,6.79E-11,0.032352003,2.34E-11,1.08E-09,4.94E-09,-6.37E-10,1.54E-09,6.47E-10,0.00362793,0.025122919,0.060570038,9.07E-10,-0.049783965,3.36E-10,5.41E-10,0.011711221,9.55E-09,8.52E-09,2.66E-10,9.80E-11,4.40E-11,0.044459834,1.34E-10,4.02E-08,3.73E-11,1.37E-11,2.48E-08,7.10E-11,1.37E-09,1.70E-09,1.28E-10,3.06E-10,-9.48E-10,8.96E-13,1.17E-12,-2.84E-12,0.028643746,0.018060734,4.33E-10,2.10E-10,3.57E-11,4.07E-09,5.71E-13,3.49E-11,0.015199058,9.54E-12,5.19E-10,0.039398329,8.96E-12,1.21E-08,1.46E-10,1.10E-09,7.55E-12,1.92E-12,0.00217887,5.78E-11,8.77E-12
-2.01E-09,-3.20E-11,1.24E-10,5.23E-10,1.88E-10,5.31E-10,-6.78E-11,6.80E-09,-2.31E-10,1.92E-08,1.73E-08,-4.59E-10,-0.006350022,5.61E-10,-1.68E-11,-1.78E-09,4.50E-10,0.001238751,-0.011295195,0.045663743,-1.00E-09,0.021125468,3.69E-10,9.62E-09,-2.92E-09,3.95E-09,2.35E-08,-5.23E-11,-5.16E-11,2.19E-12,0.012695718,-5.45E-11,4.57E-10,2.25E-11,3.28E-11,-0.003104592,0.083480434,-3.85E-10,-2.55E-10,1.15E-11,7.32E-10,-1.28E-09,6.52E-12,9.85E-12,1.53E-10,-0.01252007,-0.012421951,-0.001243193,-5.52E-11,1.77E-11,3.46E-09,2.47E-12,7.82E-11,-7.70E-10,9.84E-12,-6.26E-09,-1.11E-09,4.31E-11,-0.011823405,1.88E-11,1.95E-10,7.52E-12,1.33E-11,-2.66E-09,3.50E-11,3.61E-12
1.20E-09,5.19E-11,7.62E-11,4.50E-10,1.19E-10,1.82E-09,3.12E-10,2.62E-09,0.009305703,0.009507408,1.07E-10,6.26E-10,2.36E-09,1.03E-09,-2.23E-11,0.010617235,4.86E-10,0.002150224,6.30E-09,0.061644204,0.011773937,-0.010408592,5.78E-10,5.03E-10,0.002371052,-3.66E-10,-7.56E-09,4.42E-10,2.27E-09,-2.36E-11,0.019929911,5.42E-11,6.07E-09,6.45E-11,2.83E-11,0.002293806,7.02E-10,-1.78E-09,4.39E-09,2.11E-10,-2.45E-10,6.75E-10,3.28E-12,3.96E-11,6.36E-11,-0.030580581,0.020305803,-6.68E-10,-3.09E-10,1.44E-11,4.54E-09,1.31E-12,1.78E-11,0.003625968,1.36E-11,0.001049058,0.001708193,3.49E-11,0.007633411,-1.71E-11,1.25E-10,3.15E-11,8.91E-12,0.000308455,2.30E-11,1.36E-11
-1.37E-08,1.18E-11,2.29E-11,5.05E-10,-4.27E-11,-8.62E-11,1.73E-10,2.30E-09,-4.73E-05,-0.008231871,-1.16E-10,1.90E-11,-1.16E-09,6.23E-10,-1.60E-11,-1.80E-10,-5.46E-10,1.72E-09,-5.38E-09,-0.034580523,-1.28E-09,0.144882351,3.65E-11,-3.03E-10,-0.005681199,1.67E-09,-4.96E-09,-1.05E-10,-7.86E-10,1.27E-11,-0.015869979,1.84E-11,-4.45E-10,5.49E-12,1.43E-12,-6.31E-10,-5.65E-10,-4.96E-10,2.89E-10,1.51E-10,-4.60E-10,-7.25E-09,3.20E-12,7.87E-12,-2.99E-11,0.091943442,-0.012997191,-1.00E-09,1.62E-10,6.55E-12,9.71E-10,-3.73E-13,7.20E-11,-6.72E-08,-5.27E-13,6.09E-10,-6.47E-10,-7.71E-12,1.41E-09,-3.07E-11,-2.55E-11,-7.70E-12,-4.28E-12,-2.14E-09,-3.77E-11,-5.47E-12
2.16E-09,4.85E-11,5.43E-11,4.76E-09,8.95E-11,2.09E-09,-2.22E-10,5.08E-10,0.004910821,-7.64E-11,3.38E-09,1.75E-10,2.78E-09,5.04E-10,2.08E-10,0.000125205,8.68E-10,-9.58E-09,0.003900579,0.009227064,2.08E-09,-0.047465215,2.15E-10,-9.31E-10,2.22E-09,6.87E-09,-1.89E-09,2.62E-10,2.57E-09,5.13E-11,-0.042327574,9.09E-11,0.022130912,2.21E-11,1.83E-11,5.33E-10,-3.80E-09,8.15E-10,4.38E-10,-7.59E-11,8.32E-10,-1.47E-09,2.46E-12,2.78E-11,-1.67E-11,-0.057173296,0.004316865,5.22E-10,-1.38E-11,1.76E-11,-4.28E-10,7.58E-13,-1.48E-12,1.88E-08,1.41E-11,8.40E-10,1.45E-09,2.17E-11,0.014037966,9.52E-11,5.32E-11,3.14E-12,2.78E-12,0.004023893,5.38E-11,9.56E-12
-4.68E-10,-6.04E-12,-6.00E-12,-3.94E-10,3.47E-11,-1.58E-09,-2.80E-12,2.73E-09,-1.78E-10,1.27E-10,-4.20E-08,-2.50E-10,-1.01E-10,-1.55E-10,-1.67E-11,-4.90E-10,1.54E-10,-5.21E-09,8.50E-09,-0.021540921,-9.00E-09,-0.035048362,4.39E-10,6.06E-10,8.64E-10,6.09E-09,-1.27E-07,1.18E-10,1.82E-11,7.79E-12,-0.025241086,-7.56E-14,-6.62E-10,9.20E-12,2.42E-11,-5.75E-10,0.006214042,-2.84E-10,-7.11E-10,2.26E-11,3.22E-10,-0.003493675,1.82E-12,-2.51E-14,1.15E-10,0.098557612,-0.01609285,-3.00E-10,8.78E-10,6.97E-12,2.00E-09,1.44E-12,3.32E-11,-8.07E-10,-2.26E-12,1.55E-10,-0.004548059,8.23E-12,3.98E-10,-2.90E-11,-4.55E-11,3.83E-12,-3.09E-13,-5.32E-10,-4.05E-11,5.25E-13
-2.74E-09,-1.42E-11,-3.87E-11,-1.13E-09,-4.40E-11,-0.052252493,-2.39E-11,-1.37E-09,-5.62E-09,-1.06E-10,-3.84E-10,1.04E-10,2.33E-11,-1.31E-09,-8.04E-11,-4.38E-10,-3.70E-10,-0.007502035,5.44E-09,0.002082883,9.78E-10,-0.136364396,1.17E-10,-2.13E-10,-3.49E-09,-5.09E-09,-1.47E-09,-1.09E-09,-1.20E-10,-5.56E-13,-0.042143437,2.66E-11,-2.13E-09,1.54E-11,-3.20E-12,-6.35E-10,-2.50E-10,9.66E-11,-1.59E-10,5.72E-11,-3.80E-10,7.72E-10,2.77E-12,3.74E-12,-3.93E-12,-0.064801433,-0.000867064,-1.01E-10,-1.24E-10,-1.68E-11,-4.23E-11,1.75E-12,6.53E-12,-1.99E-10,-4.77E-13,7.29E-11,7.57E-10,6.82E-12,9.75E-10,1.52E-10,1.91E-10,6.46E-13,4.73E-12,-1.95E-09,1.97E-11,-4.99E-12
0.02002525,1.12E-10,1.28E-10,0.00255242,1.22E-10,1.31E-09,3.14E-10,4.48E-10,0.022020261,0.003642234,0.008190775,7.25E-10,0.044271178,4.51E-09,4.52E-10,1.17E-09,0.00434866,0.015367448,0.044954328,0.098619005,0.04395159,0.078314452,3.00E-10,3.58E-09,0.007654479,5.11E-09,-0.018379672,1.63E-09,7.32E-09,7.83E-11,0.031766799,5.64E-11,0.051444327,4.34E-11,3.29E-11,3.43E-09,6.67E-10,5.59E-10,0.016351298,0.012719539,0.012902786,0.047650521,7.10E-12,1.97E-11,-1.11E-11,-0.003093138,0.050726649,4.39E-10,0.008729423,6.65E-11,1.11E-08,6.63E-13,1.02E-10,0.037865812,2.22E-11,0.012521546,0.035088082,3.32E-11,0.010707749,1.94E-10,1.64E-09,8.57E-12,4.05E-12,0.052795,2.52E-10,2.35E-11
-0.001907497,5.40E-12,4.53E-11,3.06E-10,7.45E-11,2.96E-09,8.62E-11,-7.30E-10,2.72E-09,0.00102779,-6.18E-10,2.79E-10,-0.002531462,1.03E-09,-7.66E-12,-3.84E-10,5.66E-10,-1.25E-09,-3.61E-09,-0.007021784,9.92E-10,0.075730806,2.95E-12,4.31E-10,-4.53E-09,1.22E-09,-0.076171086,-1.04E-10,-2.39E-10,6.21E-13,-0.022635298,-7.54E-12,-6.88E-10,3.18E-11,1.73E-11,-3.05E-10,5.13E-10,3.34E-10,4.53E-10,-8.23E-13,-4.25E-10,2.96E-09,1.53E-12,6.47E-12,1.35E-10,0.037246927,0.036493807,3.65E-10,4.34E-10,6.06E-12,-2.23E-10,-5.04E-13,2.60E-11,-5.15E-10,1.68E-12,2.70E-10,-0.003253685,7.07E-12,0.008005284,1.06E-10,-7.05E-11,7.01E-13,-5.31E-13,1.54E-08,2.22E-11,-2.06E-12
0.035944984,2.77E-11,5.47E-11,3.90E-10,1.54E-11,7.68E-10,2.70E-10,7.80E-09,0.021368951,3.06E-10,0.018610675,3.83E-10,0.011607106,0.05127359,8.50E-10,-3.13E-10,1.39E-09,3.91E-08,5.60E-08,0.082964622,0.010698514,0.107537653,3.06E-10,8.13E-10,1.98E-08,1.58E-08,7.29E-09,4.58E-10,6.97E-10,2.27E-11,0.00974204,6.65E-11,0.000630823,1.66E-11,1.04E-11,0.015479997,1.05E-09,2.05E-09,2.75E-09,2.66E-10,1.54E-09,0.018180644,3.35E-12,2.21E-11,8.66E-11,0.03739774,0.032656721,3.56E-10,5.25E-10,-1.53E-11,-1.40E-08,1.40E-12,1.74E-11,0.054077519,9.76E-12,3.38E-09,0.016951423,1.25E-11,0.028913864,2.60E-10,2.00E-10,3.67E-12,5.99E-12,0.000686922,4.78E-11,1.38E-11
0.01096881,-0.000316033,0.002000807,-0.014094898,-0.000105524,-0.00611481,5.84E-10,0.024246495,-0.006469867,-0.008089594,-0.004709646,-0.006122857,-0.001934608,-0.011496088,0.001706952,0.001568828,0.002170891,-0.001205838,-0.013328,0.002263467,-0.013145752,-0.01160771,1.34E-09,-0.002798168,0.000367007,-2.95E-09,-0.004319938,-6.31E-10,-7.18E-08,-2.66E-10,0.002213044,-7.82E-11,-0.009259784,-0.002129023,-1.15E-09,-0.002163529,-9.97E-11,-0.003979317,-0.000150069,-0.00049082,-0.001857317,0.000157724,8.17E-11,0.000357937,-1.10E-09,-0.000312391,-0.001024804,-0.023187231,0.004362819,-1.57E-10,0.017067878,3.57E-11,3.16E-09,-0.00017805,1.32E-11,-0.00234778,-3.06E-10,7.04E-05,8.64E-10,0.001095716,1.36E-09,3.93E-11,2.74E-11,-0.007627445,-3.12E-10,1.82E-10
0.081983888,6.73E-11,2.73E-11,1.31E-09,3.04E-11,0.014154262,6.91E-10,1.48E-09,-0.005216568,1.85E-10,2.51E-08,1.46E-09,0.007861075,2.13E-10,1.09E-09,0.001809773,3.17E-10,0.010659032,0.028505224,0.000382227,0.037792202,0.118514267,2.50E-11,1.37E-09,0.011479008,7.81E-05,1.06E-08,5.95E-11,3.71E-09,6.59E-11,0.021728525,1.07E-10,5.32E-09,3.74E-11,1.67E-11,0.000411573,0.010576261,3.21E-10,5.85E-09,4.28E-11,6.75E-10,1.27E-08,3.81E-12,7.60E-12,1.03E-10,0.010538153,0.029464535,0.04351615,3.18E-10,8.45E-12,6.08E-10,2.68E-12,-3.19E-11,0.011138177,1.70E-11,3.34E-09,0.035391415,1.73E-11,0.040396243,9.05E-11,2.44E-09,1.08E-11,1.12E-11,0.018938982,2.11E-10,1.40E-11
-1.73E-09,1.68E-11,1.77E-10,3.79E-10,1.94E-10,2.17E-09,-7.16E-11,1.58E-09,0.012739601,6.63E-10,1.39E-09,-6.10E-11,0.001434961,-8.83E-10,2.16E-10,2.03E-09,-3.74E-14,2.45E-09,-5.38E-06,-0.038595059,5.33E-10,0.076309667,4.20E-10,1.30E-09,-6.71E-11,2.69E-09,0.01129772,1.21E-09,1.65E-09,2.92E-11,0.021381934,-1.64E-11,7.48E-10,4.58E-11,3.68E-11,4.33E-07,1.25E-09,5.75E-10,1.42E-09,1.15E-10,3.74E-10,-2.95E-09,7.31E-12,1.25E-11,1.57E-10,-0.001287587,-0.025132268,-2.94E-09,3.86E-11,1.03E-12,-5.04E-10,2.68E-12,2.48E-11,-4.36E-10,6.60E-12,-1.11E-10,0.011596388,4.49E-11,0.004472922,2.21E-10,-1.91E-10,7.19E-12,9.11E-12,8.86E-10,1.05E-10,1.10E-11
-0.001159432,-4.38E-05,0.001235806,0.012346366,2.03E-10,-0.001615357,-4.30E-09,-5.47E-10,-0.005081738,0.001998305,-0.00160757,-0.003485241,-0.001233962,-0.008713218,-0.000627864,-3.97E-10,-0.001712765,-0.003089683,1.50E-08,-0.003864361,0.003938273,-0.003159791,5.00E-10,-0.013579964,-0.001151872,-0.012498979,0.023102191,-0.022073858,1.48E-09,7.55E-11,-0.006943945,0.000627268,-0.0030564,-1.70E-11,1.59E-09,-0.005228596,-0.008912942,-3.19E-09,-0.002467457,4.79E-11,-0.000977289,-0.004923268,1.33E-10,4.35E-11,-5.80E-10,-0.017000631,0.001994582,-0.002871045,-0.003279146,3.71E-11,1.14E-08,6.16E-11,1.84E-10,-0.00474285,0.001550309,-1.32E-10,-0.0041193,3.39E-11,-1.50E-08,4.96E-10,-9.91E-05,2.01E-10,-1.87E-11,-0.01243736,-2.63E-10,4.50E-11
0.064923918,7.46E-12,1.15E-10,8.69E-10,4.79E-10,1.83E-09,-2.78E-10,1.87E-09,9.64E-09,5.22E-10,-1.10E-09,-3.13E-11,0.000497651,1.25E-09,2.59E-10,-7.61E-10,-1.59E-10,4.98E-09,1.53E-08,0.038391261,1.19E-09,0.084754752,3.53E-10,1.11E-09,-2.16E-10,0.000141453,2.42E-08,-1.31E-09,1.08E-08,4.22E-11,0.030324436,1.26E-10,0.006982174,9.66E-11,4.42E-11,5.33E-09,8.24E-09,-4.26E-10,5.20E-09,2.05E-11,8.94E-12,0.026712677,1.18E-11,1.28E-11,1.90E-10,0.031762815,0.006702444,-8.21E-11,-1.22E-11,5.79E-11,1.59E-09,7.28E-12,1.37E-11,-7.80E-11,8.47E-12,-0.017912581,0.002092839,5.29E-11,0.025705528,-1.77E-11,3.04E-10,1.38E-11,1.01E-11,-5.10E-10,5.96E-11,6.59E-12
0.026135447,0.001289217,0.002107002,5.76E-10,9.75E-10,0.026047263,-3.80E-05,-0.041822527,0.000266748,0.005387734,-0.000458379,-1.27E-10,0.000942179,1.40E-09,0.00640034,-0.003772383,0.002628811,8.98E-05,0.000728857,-0.011707175,0.002675674,0.023516302,-2.93E-09,0.004417996,0.002239658,-4.23E-10,-7.94E-09,5.31E-10,-1.41E-09,0.003341905,-0.000813574,0.005852493,0.003228495,0.003440226,0.00010267,1.77E-10,0.013671049,-0.003336682,0.005342675,3.82E-10,-2.96E-10,0.004160341,1.73E-09,3.57E-10,0.004682563,-0.017136386,0.00379281,-0.00734033,4.33E-09,4.97E-09,-0.012238367,0.000856541,4.08E-09,0.002516867,1.63E-10,0.003785009,-0.003087471,0.004166939,1.35E-09,2.56E-10,7.56E-05,9.04E-10,1.91E-10,1.01E-09,0.004931171,2.02E-10
8.60E-10,1.34E-08,7.96E-11,0.002005945,-0.000463908,0.000873135,0.041278074,0.003886631,0.002732914,-0.000157553,0.00057785,0.000373075,-0.000330542,7.62E-10,-0.000984849,-2.26E-09,-2.86E-10,0.001540769,-0.00222383,0.000553893,0.000552842,-0.003016663,-0.001877685,-0.000414825,0.000825706,-0.000346709,0.000370862,0.000737849,5.76E-09,2.76E-10,-0.001080886,-1.55E-10,-0.001141862,-0.000191851,3.19E-10,-0.000982816,-0.002902586,0.000360022,-0.000152061,0.000262609,-0.001213138,0.001628619,0.000810487,-1.56E-09,-0.000681924,0.003729104,0.000455341,-1.92E-10,-0.000878522,-2.00E-10,0.030559983,6.93E-11,-3.03E-10,0.000552651,-6.72E-05,-0.000253366,-0.000367747,-1.78E-10,-0.002191232,9.83E-05,-0.000868299,-5.96E-11,0.000238676,-0.000223802,-6.07E-10,0.000243604
0.000828533,-0.000775565,-1.06E-10,-0.007185967,-3.20E-08,-0.002299202,-0.006386905,1.00E-09,-0.001552705,-0.001306579,-0.002164847,-0.000943078,-4.39E-10,-0.00202861,-0.000562092,-0.00188449,9.89E-05,-0.000902538,0.001477132,0.002079767,-0.002258207,-0.005144743,-0.024848087,0.003670199,-0.001054459,0.002313903,-0.007602563,0.00137154,-0.002879607,-0.000343779,0.000908004,-0.000312946,0.000221881,-2.32E-09,-0.00057017,0.000108619,-0.013560356,7.78E-05,-0.000113501,-0.000957512,-0.000515967,0.000779944,-3.59E-11,-0.000870391,-0.000113265,0.004295862,-0.000571612,0.005556893,0.00047701,-0.000211196,-0.009626395,-3.06E-11,-0.000739035,-0.000835253,-3.88E-11,6.55E-05,-0.000302306,-0.000956866,-1.39E-09,0.000753759,-0.000700963,-6.46E-05,-6.88E-11,-0.000717345,-0.000120119,-1.85E-10
3.36E-11,1.37E-10,0.003254385,-5.34E-11,0.000343533,0.007755201,1.03E-09,2.93E-06,0.000282201,3.56E-09,0.003490658,3.11E-10,0.002894537,-0.00874477,-5.73E-11,4.16E-09,1.26E-09,-2.83E-09,-0.007012446,-0.019982133,-1.52E-08,0.012383628,2.16E-09,0.003886804,-0.003705747,-3.27E-11,-0.007119325,-3.77E-10,0.001285777,0.000487502,-0.003077905,1.48E-09,0.015935258,6.51E-10,1.11E-10,0.001278848,3.45E-10,-3.10E-09,2.57E-09,0.003376693,1.62E-10,0.003126573,3.17E-11,3.02E-11,-9.45E-11,-0.009363502,0.015301401,3.33E-09,0.000730147,3.86E-11,0.082392256,1.45E-11,4.26E-10,0.009179156,7.22E-12,0.00053801,3.30E-10,8.59E-11,-6.07E-08,0.003896627,1.79E-10,0.000581086,1.73E-11,0.000945616,1.75E-10,5.64E-11
9.69E-10,-6.52E-11,-5.86E-11,-0.01589463,-1.23E-10,-1.35E-09,1.41E-10,5.06E-10,-0.001727072,0.018284863,-0.016672092,-1.34E-10,-2.40E-09,4.16E-10,9.81E-10,-3.13E-09,-1.99E-09,-1.09E-09,-0.019577911,-0.007463869,-1.94E-09,0.116957053,5.33E-10,-7.42E-10,-0.001226124,-0.020751044,-3.83E-09,-3.12E-10,-9.99E-10,4.75E-11,0.018404754,-8.57E-11,-0.005930373,-4.97E-11,-1.20E-11,-1.25E-08,-0.022226082,-0.009715276,-0.006786454,-2.34E-11,-0.011179639,-0.010755078,1.13E-11,3.76E-11,-3.63E-10,-0.082550292,0.003990541,6.68E-11,-3.41E-10,-8.42E-11,5.73E-09,7.57E-12,-1.22E-10,-8.76E-10,-1.21E-11,-0.010529175,-0.013580557,-1.38E-11,-0.022716787,4.89E-11,-1.10E-10,5.57E-12,7.78E-12,-0.001596645,-6.87E-11,-4.22E-12
-1.31E-08,2.25E-11,1.26E-09,8.03E-10,1.44E-10,-6.64E-10,1.50E-10,5.23E-09,0.020652122,-0.002651438,7.93E-09,-6.16E-12,0.001118954,3.85E-09,2.16E-11,2.72E-09,1.74E-09,-0.013840569,0.029589941,-0.010955555,6.63E-05,0.054910728,-7.19E-11,1.66E-09,0.031951664,2.36E-10,-1.31E-09,2.02E-09,2.54E-09,2.02E-10,0.015265089,1.56E-10,0.00233986,5.11E-13,5.46E-11,-1.01E-08,0.064290654,2.34E-10,-8.70E-09,-0.007881943,-1.08E-09,0.034782064,1.28E-11,1.42E-11,1.85E-10,0.049095836,-0.023478088,2.22E-10,6.44E-10,-1.51E-10,2.61E-08,-2.63E-12,1.17E-10,-1.67E-10,4.49E-12,8.92E-10,1.52E-09,3.51E-11,-0.015235034,-4.55E-11,-5.68E-11,-1.50E-11,2.46E-12,-9.62E-10,4.71E-10,1.53E-11
0.016027532,0.007097341,0.003415173,-1.93E-09,0.011108346,-0.013515624,0.040031629,0.025564837,0.007000262,0.006056298,0.005600103,0.012600696,0.003938877,0.003101939,4.11E-10,0.001831912,-1.30E-10,0.006494224,0.008894321,-0.01277087,0.008896447,0.001758334,0.003805591,-0.004950495,0.010983319,0.024155608,-0.011820363,0.000229101,0.007056382,8.16E-11,-0.013293527,4.34E-10,1.12E-09,2.39E-09,0.004297952,0.002672857,0.009496436,-2.79E-11,0.009194434,-3.25E-11,0.007441161,-8.88E-10,5.21E-11,2.62E-10,0.001011077,0.003639956,0.001397783,0.081439048,0.002285655,4.11E-10,0.017642464,1.04E-11,0.004899737,0.00363334,2.97E-10,0.004797129,0.005877779,0.004025335,0.001776657,0.002040041,0.002721878,2.84E-11,3.58E-11,0.00900973,0.001019607,0.002553521
-2.51E-09,5.31E-12,2.31E-10,1.87E-09,-3.12E-11,1.40E-09,2.35E-10,-0.000922734,-1.13E-08,-0.009267547,-0.006513746,-2.43E-10,0.001343953,-2.39E-10,-1.40E-09,-7.50E-10,1.01E-10,0.002291047,9.61E-10,0.010644957,-0.009501181,-0.015659648,4.23E-10,-1.27E-09,1.38E-08,-6.74E-10,-1.02E-09,1.80E-10,-5.19E-11,1.55E-11,-0.001806795,1.82E-10,-0.010160968,6.04E-11,3.74E-11,1.65E-09,3.35E-10,7.21E-09,-4.18E-10,1.09E-10,-1.62E-10,-2.83E-09,4.06E-12,9.11E-12,3.25E-10,0.049887074,0.033476184,-2.34E-10,2.75E-09,2.59E-12,-0.161547396,4.00E-12,7.90E-12,-3.41E-10,5.38E-12,-0.004929824,-0.000618665,3.96E-11,-9.23E-11,1.17E-10,1.81E-10,1.34E-11,5.64E-12,-3.08E-09,-4.66E-11,1.18E-11
-6.35E-09,-0.00105967,0.000409999,-0.000118436,-0.000474062,-0.000372975,-0.01599147,-0.003189669,0.004764301,-0.002262541,0.002175423,-0.000702575,-1.16E-08,0.001190078,-0.000945295,0.001436918,-1.69E-10,0.000143037,0.002550542,0.005671664,0.003237091,-0.010903079,-0.032202373,-0.00088007,0.000344745,-0.002860692,0.014750982,1.88E-09,-5.45E-10,-1.04E-10,0.000428683,-0.000752937,0.000797507,-2.94E-10,-6.72E-10,0.000348748,-0.02564858,-0.000646266,-3.18E-10,0.000179127,-1.92E-08,-0.001179013,1.12E-12,-7.87E-12,3.39E-10,0.009891036,-0.003221455,-0.014622955,0.000310157,-7.00E-10,-0.011041628,-3.78E-13,-8.81E-11,0.000549305,-1.10E-11,0.000255696,0.000893099,-0.000869568,3.46E-09,-1.98E-10,0.002559057,-3.40E-11,-2.91E-11,0.000354685,6.55E-11,-1.53E-10
-6.06E-09,-1.70E-11,-2.60E-11,-3.90E-09,-8.61E-11,-4.87E-09,8.94E-11,-1.77E-09,-1.30E-09,0.027520863,-1.08E-09,-1.20E-10,-1.31E-10,-4.40E-10,3.57E-09,4.29E-11,-1.48E-10,1.39E-08,1.18E-09,-0.026328411,8.22E-11,0.10764107,-1.73E-10,-8.56E-10,-6.02E-10,9.10E-10,-1.17E-09,-1.40E-09,-1.40E-09,-1.68E-11,0.011718884,-6.50E-12,1.56E-09,2.87E-12,-1.37E-11,7.11E-10,-0.076434756,-4.04E-10,2.04E-10,-7.50E-12,-3.03E-10,-3.48E-09,6.18E-13,6.85E-12,-2.79E-11,-0.058662126,0.015417317,-3.69E-10,1.58E-10,4.64E-12,1.47E-09,-1.42E-12,-2.34E-11,-6.65E-10,1.41E-12,9.61E-10,-2.01E-09,-6.19E-13,1.69E-10,-1.52E-10,8.94E-11,2.64E-13,2.75E-12,4.19E-10,-4.46E-11,-1.79E-12
0.000230862,8.98E-11,9.92E-11,1.45E-08,0.002373233,0.006173976,-1.82E-11,-3.09E-09,0.029409682,0.001421843,0.01673247,2.78E-09,-5.69E-10,1.15E-09,4.94E-10,0.027668143,1.21E-09,0.01406089,0.010284953,0.000657998,0.018855242,-0.049491094,6.86E-10,-0.003621288,-1.77E-09,1.40E-09,2.23E-08,2.42E-10,3.56E-10,1.37E-09,0.012000581,2.36E-10,0.000234424,1.93E-10,1.24E-10,-2.04E-10,-2.23E-11,3.43E-10,1.12E-08,6.25E-11,4.05E-09,0.018486252,2.12E-11,1.00E-10,4.30E-10,-0.024705737,0.014763492,-0.006067429,0.020168584,7.31E-10,-1.01E-08,1.41E-11,3.69E-10,0.005634738,6.67E-11,7.80E-10,0.001028517,8.34E-11,0.009117973,5.40E-10,5.53E-05,6.92E-11,3.34E-11,6.98E-09,1.16E-09,3.61E-11
-4.10E-09,3.62E-11,1.46E-10,-4.55E-10,3.83E-11,-2.53E-10,4.91E-10,1.22E-09,2.20E-09,0.006398633,6.84E-10,2.54E-11,3.90E-09,8.55E-10,-6.17E-11,1.11E-09,4.73E-10,-4.62E-10,5.48E-09,0.004854965,-1.07E-09,-0.103112741,3.39E-10,-1.34E-09,-6.92E-11,1.63E-09,3.05E-09,4.94E-12,-1.77E-10,5.70E-11,0.024844287,9.30E-11,-2.56E-09,4.24E-11,3.15E-11,-3.08E-10,0.058790245,3.92E-10,3.83E-10,6.34E-11,5.60E-10,1.96E-08,2.40E-12,3.60E-11,2.04E-10,0.069476345,-0.01571186,0.021421861,8.19E-10,3.24E-11,-1.79E-08,4.43E-12,4.90E-11,7.76E-11,8.12E-12,1.27E-10,-1.83E-09,4.30E-11,-2.31E-09,3.03E-10,6.16E-11,7.85E-12,7.32E-12,3.00E-10,6.41E-11,5.55E-12
-1.44E-09,1.33E-10,1.60E-10,-3.92E-12,1.45E-09,3.37E-10,5.89E-10,1.52E-08,1.72E-09,0.005940713,5.98E-10,7.86E-09,0.005907993,0.019272319,-1.81E-10,1.12E-09,0.00021573,0.016385949,-1.01E-08,0.037231173,1.69E-09,-0.079466897,1.64E-10,1.40E-09,2.72E-09,-1.22E-09,-2.70E-09,5.41E-10,0.004148957,1.73E-10,0.012783523,9.61E-11,1.65E-09,9.18E-11,6.06E-11,6.18E-10,0.034666975,1.99E-09,4.56E-10,-1.36E-10,0.01890262,3.10E-09,8.96E-12,3.79E-11,3.91E-10,0.03801094,0.010612951,6.23E-10,3.16E-10,6.19E-11,-1.59E-09,3.37E-12,1.61E-10,3.46E-09,2.19E-11,0.016367936,0.01100471,4.42E-11,5.66E-10,-7.67E-11,3.39E-10,1.38E-11,4.41E-12,0.000769547,3.84E-10,1.03E-11
0.020697328,7.41E-11,1.16E-10,0.006467085,2.30E-10,0.029148013,1.11E-09,-0.034638902,0.000609826,-7.80E-10,0.006368924,-2.57E-10,-0.001412349,0.022844175,-0.000138671,0.008068948,6.79E-10,0.011236928,0.018201634,0.004662049,0.006560304,-0.023023443,4.43E-10,-2.60E-10,0.004512866,0.008101759,0.048263655,1.19E-10,0.018243234,2.00E-11,-0.005913698,1.15E-10,-1.84E-09,-1.92E-11,1.58E-11,0.001670063,-2.42E-10,0.00592449,-0.009628291,-3.95E-10,-0.002112903,0.018889899,1.00E-11,4.99E-11,1.14E-10,0.01333954,0.001111983,-2.76E-10,8.63E-10,-6.89E-11,2.55E-09,-8.37E-12,1.63E-10,1.01E-09,3.33E-11,-0.013950289,-0.002744153,1.46E-10,0.010107362,8.19E-10,6.03E-10,-1.35E-11,1.70E-11,0.006800987,1.16E-10,5.86E-11
2.12E-09,-6.70E-11,1.32E-10,0.006955345,0.001254544,0.005223452,3.86E-10,1.30E-09,0.004396426,-4.56E-10,0.00052597,7.06E-10,-1.14E-05,-3.35E-08,-0.000863696,4.62E-10,-4.17E-10,-0.004212711,-0.002263543,-0.007010025,0.000841325,-0.01278298,7.66E-11,2.35E-09,-0.000204924,0.003360682,0.002662307,1.21E-10,-3.26E-10,-5.45E-10,0.000503217,8.90E-11,-0.001248232,-1.90E-05,5.78E-11,0.003261981,-1.56E-10,-1.89E-10,0.002213177,0.000501818,0.002100061,-0.0033487,-4.86E-10,-1.74E-09,4.06E-10,-0.014722507,0.006670984,-0.00721105,-0.002609358,-5.70E-11,-0.015452045,-2.49E-11,-0.000202121,-0.001363573,-0.000102386,0.001420913,0.000233004,-9.65E-11,-0.000246142,0.000791574,0.000571872,1.79E-11,-1.25E-10,0.000221288,6.24E-05,-1.87E-11
0.007727981,-0.001128378,-7.54E-11,4.46E-10,1.57E-10,-0.000327928,-2.99E-09,1.17E-07,-1.22E-09,4.97E-09,-5.64E-09,-0.020546131,0.000239019,-1.11E-09,0.00739398,0.000970009,-1.32E-09,-0.005141892,-0.017270873,-0.031131831,0.009164826,-0.033269288,-1.00E-11,-0.000104529,0.00518504,-0.011072399,0.025925933,-0.006511974,-3.11E-10,-3.80E-10,-0.006794696,-1.38E-10,-0.001019467,-6.18E-10,-0.000525328,1.01E-09,-0.003620738,0.004048499,-0.006506426,-3.82E-11,0.003360513,-0.018935784,-3.47E-11,6.46E-11,-0.003169335,-0.003758974,0.001377424,4.66E-10,4.19E-12,-0.002465928,2.58E-09,1.76E-12,1.48E-10,-0.004086754,2.78E-11,-0.001997066,0.000220424,-4.28E-11,-0.003718868,-5.84E-05,-2.69E-10,-6.11E-11,3.15E-12,0.004109289,-2.20E-10,2.58E-11
5.33E-09,-9.53E-11,2.27E-10,-0.000790306,-1.05E-10,0.000889576,2.69E-09,1.71E-08,-0.008156745,-0.000659041,-0.005319786,-2.33E-10,-0.001619723,8.89E-11,1.77E-10,-0.006880067,-0.002253256,0.000668572,-0.005025131,0.003429399,-0.005608334,0.01322214,2.09E-08,-6.64E-10,-8.85E-10,-0.004474344,0.011001668,0.002407313,-0.003483633,3.04E-10,0.00173715,-2.04E-11,-0.006884551,-1.16E-10,-9.65E-12,-0.002816079,6.13E-10,-0.001599795,-3.68E-09,-0.005326055,-0.00228996,-6.72E-09,3.59E-11,-2.55E-11,-5.95E-10,-0.001713209,-0.004406227,-1.51E-10,-0.000360542,-4.26E-09,0.039762775,7.56E-12,-6.86E-11,-0.001702056,1.23E-10,-0.005823741,-0.005827186,-1.03E-11,-0.003761311,-0.001141372,-0.000630038,-7.03E-12,5.82E-11,-0.002011659,-0.002865978,-2.89E-11
0.00059142,0.002109726,0.000383469,0.003261325,-0.000448157,3.29E-05,1.06E-09,-0.009053027,0.000968881,0.000557617,0.001913167,-0.001264973,-0.000777107,4.78E-10,-0.001027698,-0.00044963,-0.000272602,0.000769861,0.00083092,-0.000331619,-0.000652586,-0.002194502,0.056348855,6.24E-10,6.30E-05,0.001332912,-0.000462229,-0.002751837,-0.000516098,0.000263452,0.001955173,0.001451298,-0.00160695,5.96E-09,-1.41E-11,0.001243952,0.011529424,-0.00069617,-1.57E-07,4.01E-10,-0.000796933,-0.001880327,-6.07E-12,0.000707784,0.000959324,0.006062226,-0.001305606,-0.007228318,-0.001450233,6.03E-12,-0.004511475,-1.92E-11,0.00129908,0.000408317,0.000927398,0.001596285,-0.001942078,8.84E-11,-0.000428667,0.000243728,0.000895216,-0.000218584,-4.16E-11,-0.001157033,0.000199614,-1.45E-13
0.001706922,1.17E-07,0.000305559,0.015119983,-7.57E-11,-0.017252255,2.12E-09,0.042604262,0.001295227,0.000371453,0.001720895,-2.31E-10,0.002665532,0.001414504,-8.69E-11,1.41E-09,0.000625726,-0.002725318,0.000770393,0.003959347,-6.73E-05,-0.001292899,-5.04E-10,0.020835128,0.001247657,0.005348002,-0.003725958,-0.002646892,-0.004043269,0.000907807,0.001962237,0.000128805,0.000792276,-1.60E-09,6.98E-10,0.000701399,-0.016370058,-6.29E-10,-0.000876458,-0.000140602,-7.77E-11,-0.00413951,0.001095935,6.90E-11,9.81E-09,0.010625771,0.000792624,-0.00515916,0.001321932,0.001576624,0.003473771,7.31E-11,-2.31E-10,0.002069492,0.000503623,-0.000189331,-1.83E-05,0.00013156,-0.002712866,1.15E-08,0.000860423,0.000146193,2.12E-10,0.002187433,9.15E-11,-1.36E-11
0.006742845,0.006294455,4.37E-10,0.020712894,2.99E-10,0.019783047,2.01E-10,0.054799164,0.003733021,-3.74E-09,0.003981391,5.31E-09,2.05E-10,0.001645622,5.04E-10,0.000634938,0.010061944,0.000696599,0.003002643,-0.014959151,-3.07E-09,0.004574039,1.64E-10,1.01E-08,0.008820327,0.006463893,-0.039643841,0.012961636,1.93E-06,8.14E-10,0.003309574,2.14E-09,1.44E-08,5.07E-10,6.38E-10,0.007102869,0.014071624,0.003287348,0.007112254,-5.60E-11,0.005381164,0.015249629,1.83E-11,8.46E-11,6.68E-10,-0.025931567,-0.003353966,-0.021175578,3.70E-09,2.35E-10,1.71E-09,3.31E-11,0.008592496,0.008815913,6.39E-06,-1.11E-09,-1.72E-09,1.40E-10,0.007850457,3.51E-10,0.001930726,8.23E-11,2.70E-11,0.012458421,1.77E-09,2.68E-10
-0.004800234,-0.000398541,3.30E-10,-0.003835978,-4.55E-10,-0.003657136,6.70E-09,1.42E-10,0.001173894,-0.003825718,-0.000623467,-2.42E-10,-0.000741118,-0.001450067,0.001542516,-0.001624186,7.84E-10,-0.002963567,-0.000261443,0.010974812,0.001113905,0.000269401,1.85E-08,8.90E-10,0.001473216,0.00396895,-2.38E-09,0.004540462,-0.000370267,-1.91E-10,0.003169735,0.001338335,-0.005694352,1.36E-10,0.001683595,-1.62E-07,0.033864697,-0.001128933,0.000345867,0.002656035,9.16E-08,2.72E-09,-3.09E-12,-2.77E-10,8.04E-05,0.010567092,-0.005406429,-0.003403947,0.001800138,-0.000496752,-1.01E-09,-1.39E-11,0.000756378,-0.000464158,3.59E-11,-0.001435317,-0.001198246,3.85E-10,0.002362401,-4.46E-10,-0.00014375,-4.34E-10,3.61E-11,-0.001141661,6.48E-11,-4.62E-11
0.007073169,0.005842357,0.009837326,0.004926688,0.008935322,0.018501695,0.040895317,0.059937815,4.10E-08,0.001526913,0.00230024,0.002837399,0.003791638,0.023063411,0.013829893,0.013001365,0.005404458,0.008685058,-8.07E-09,0.003155015,0.006543373,-0.02907598,0.026134216,0.022407732,0.006020011,0.003524879,0.021087408,0.021766538,0.006157956,0.010812551,0.003567116,0.011995576,0.008430146,0.003689362,0.007276636,0.005338318,0.031280626,0.009755883,0.008932062,0.010219601,0.008684796,0.012105439,4.00E-10,0.006177244,0.007357222,-0.007264218,0.001877414,0.027928014,0.007589968,0.006807722,0.104009753,0.000757714,0.009078992,0.008899449,0.009972034,0.008153451,0.008002776,0.011826037,0.007736656,0.002734599,0.004862706,0.003433529,0.003160041,0.008214176,0.007571887,0.00627309
-0.001015437,-9.25E-06,-0.000900214,0.008750031,-0.00138624,-0.002667676,-0.003096365,6.19E-10,-0.00354259,8.11E-05,-0.000562625,-1.26E-10,0.000637778,-0.000885193,3.05E-10,-1.66E-09,0.001581825,6.58E-05,-0.003615176,-0.005445518,-0.003429168,0.006754473,-0.003181558,1.68E-09,-0.003588232,8.27E-10,-0.003637977,-0.00638016,6.61E-08,-0.000566933,-0.000789342,-1.07E-09,0.000801745,-2.23E-10,-0.000140473,-0.001786276,-0.025288685,0.000488793,-4.99E-05,-0.001300969,-0.001253875,-0.004844986,-7.35E-12,-0.000261717,-0.000988345,-0.003798621,0.000783009,0.004329392,0.000331455,0.000122431,0.011338235,-6.73E-05,0.001933666,-0.000960914,1.02E-10,0.000450006,-2.82E-05,-2.75E-11,0.000160212,-5.83E-10,-0.000430572,-4.82E-11,-1.51E-10,0.000258338,-9.38E-10,0.000560837
-0.001131246,2.44E-10,0.009851124,0.009359726,4.49E-10,0.001515436,2.15E-09,-4.82E-10,0.001447721,-0.001205967,-1.51E-11,-7.85E-10,0.00332988,0.020398528,-0.005138901,1.13E-09,0.008640894,-2.21E-09,-0.000354721,0.014645607,4.72E-10,-0.034931817,4.62E-10,0.035277862,0.003574829,1.09E-08,-1.40E-09,0.024110489,0.019403505,0.010884487,-0.008533995,3.27E-10,-0.004141962,1.89E-10,1.78E-10,0.01435993,1.99E-09,9.47E-10,-3.91E-10,0.000456539,0.000838976,0.00882482,2.35E-11,3.29E-11,0.008431988,-0.019388656,0.006631763,-0.01193732,-0.000993818,1.37E-11,1.54E-08,4.20E-11,3.14E-11,-0.000413011,1.66E-12,4.62E-10,-0.003095051,8.59E-11,-0.001620309,-2.13E-10,9.04E-11,5.57E-11,9.28E-12,0.00518794,1.20E-10,8.29E-11
-0.040331786,-4.67E-12,1.12E-10,-1.02E-11,1.03E-10,-3.03E-09,7.83E-11,3.32E-09,1.67E-09,1.03E-09,-0.001584071,4.40E-11,8.36E-10,-1.74E-10,1.63E-10,-5.89E-12,2.24E-10,0.002576735,-1.43E-08,0.036537227,-4.96E-11,0.065917125,5.36E-10,-3.79E-10,2.19E-10,1.22E-09,3.11E-08,5.26E-10,5.34E-11,5.65E-11,0.003722862,4.72E-11,-0.007940303,5.26E-11,2.74E-11,4.79E-10,5.68E-10,-1.20E-10,-1.99E-10,-7.62E-11,1.52E-10,-0.024646369,2.59E-12,8.26E-12,3.68E-10,0.027184354,-0.027983889,-7.72E-11,9.68E-10,2.16E-11,-2.18E-09,2.68E-12,7.90E-11,-1.02E-09,5.43E-12,5.04E-09,-4.08E-09,2.16E-11,8.45E-10,7.77E-11,6.04E-11,8.00E-13,3.31E-12,-2.12E-08,4.68E-11,3.62E-12
0.07229899,9.30E-11,0.004558378,1.79E-09,4.14E-10,0.000178721,1.11E-09,1.82E-09,0.012651499,6.77E-10,0.003625708,1.50E-10,0.007885809,0.002334251,0.001039612,3.17E-09,0.017036811,5.39E-09,0.000570293,-0.011368859,9.22E-10,0.031339736,1.51E-09,4.22E-09,0.0010002,-1.57E-09,0.001514008,8.22E-10,0.00511393,1.49E-10,0.004685784,6.18E-10,1.24E-09,8.70E-11,9.61E-11,0.010152034,-0.003396709,0.010323123,9.41E-10,2.81E-10,1.85E-09,0.015902728,1.54E-11,1.30E-10,0.00573494,-0.035528609,-0.014104895,0.05838636,5.00E-10,1.01E-10,3.41E-09,1.15E-11,1.46E-10,0.000649204,1.10E-11,0.011419688,0.00711844,6.90E-11,0.01296326,5.39E-10,0.0045066,2.16E-11,1.65E-11,-8.27E-10,3.47E-10,1.98E-11
0.026788912,-1.42E-11,5.20E-11,4.60E-10,5.34E-11,-0.00903973,5.73E-10,2.00E-09,0.015354943,-1.21E-09,-7.08E-06,9.30E-11,-2.78E-09,4.44E-11,3.21E-10,-1.64E-10,-4.01E-11,0.002820245,0.009707661,0.006728831,-1.03E-09,0.004139416,-4.31E-10,7.28E-11,-1.01E-09,-1.21E-09,-2.82E-09,9.23E-10,-2.24E-10,3.32E-11,0.018883473,1.69E-10,-0.013344369,2.70E-11,1.61E-11,-2.74E-10,-0.018055771,-1.99E-10,3.86E-10,-4.70E-11,6.27E-10,-6.63E-11,3.05E-12,2.08E-11,-7.14E-12,0.073808643,-0.015597777,7.02E-11,1.60E-09,2.40E-11,1.13E-09,1.76E-12,-4.94E-12,-9.56E-11,8.18E-12,-1.36E-09,-0.007550697,1.48E-11,-1.47E-09,-4.91E-11,2.21E-10,1.09E-11,9.63E-12,-7.82E-10,4.63E-11,5.39E-12
2.19E-09,7.68E-11,2.69E-10,0.00768426,1.24E-10,5.24E-08,3.87E-10,1.20E-08,0.010779926,2.13E-09,0.002611633,3.75E-10,1.07E-09,0.003795326,6.09E-11,1.09E-08,1.04E-08,0.016115308,0.014633025,-0.022832892,6.09E-11,0.003151651,9.44E-10,7.64E-11,0.002369621,3.46E-09,0.033481573,8.45E-10,-3.20E-11,4.18E-11,0.001859615,2.40E-10,0.027986614,8.74E-11,6.13E-11,4.20E-10,0.019681783,6.98E-07,5.58E-10,3.95E-09,2.81E-09,0.011238644,1.19E-11,2.25E-11,1.98E-10,-0.004505942,0.042139615,3.24E-11,9.03E-10,5.34E-11,-4.82E-09,4.49E-12,1.69E-10,2.27E-05,6.50E-12,0.005157248,0.005253316,4.08E-11,-4.19E-10,1.80E-10,2.35E-09,3.96E-12,3.71E-12,-6.99E-10,1.19E-10,1.64E-11
0.00439846,-5.39E-12,2.65E-10,-2.09E-09,3.56E-10,-0.02031747,-6.55E-11,-3.94E-08,-0.000825068,1.10E-10,0.006366357,-8.38E-10,-4.48E-09,-5.93E-10,9.73E-10,4.03E-09,-0.002049758,0.000835573,0.003596007,0.001681428,6.67E-09,0.009594454,-2.31E-10,1.28E-09,-5.70E-11,-7.19E-10,2.78E-10,-0.001155102,6.35E-11,2.11E-10,0.027223393,3.05E-11,4.83E-08,0.003248289,1.15E-10,0.010460035,1.30E-10,6.53E-10,-2.03E-09,-4.63E-11,0.006201672,-1.81E-09,1.35E-11,4.83E-11,0.007782186,0.021287967,-0.008502014,-3.75E-09,0.001234708,1.59E-10,-1.18E-08,9.45E-12,2.15E-10,0.001237819,1.39E-12,-0.003124895,-1.83E-09,8.23E-11,-5.16E-10,1.05E-09,1.07E-09,2.58E-11,2.20E-12,0.001859546,6.37E-11,1.47E-11
1.36E-08,-6.46E-12,3.50E-10,-0.011572942,2.78E-10,-1.75E-09,7.98E-10,1.84E-07,-2.32E-09,0.007313478,2.09E-09,5.62E-10,-0.00720946,-5.38E-09,7.13E-09,-0.002294952,-0.001855899,1.14E-08,0.002071169,0.007658863,-0.0037273,0.056991558,4.79E-10,-3.43E-10,-0.00636997,1.05E-09,0.025432867,-0.011015589,-7.80E-11,-1.91E-12,-0.012935683,4.19E-11,-0.002737838,-2.01E-11,1.75E-10,-0.003856479,-7.71E-10,9.53E-10,-1.00E-09,5.98E-11,1.00E-10,0.018829869,5.02E-13,-4.01E-11,1.34E-11,-0.0145058,0.002339867,9.58E-10,3.71E-09,-2.07E-10,6.36E-10,-6.68E-12,5.42E-11,-1.20E-09,-1.02E-11,6.19E-10,-0.001592904,-2.69E-13,-0.003539611,-5.12E-10,1.58E-11,-2.47E-11,-2.00E-11,-0.009395822,4.03E-12,-1.08E-11
0.017514293,-9.38E-12,-3.73E-11,3.82E-11,1.11E-10,-9.17E-09,-3.94E-10,-6.80E-09,-0.007891891,9.09E-10,0.005485797,7.67E-13,1.10E-08,-2.29E-10,-1.61E-10,0.008135343,1.04E-09,-0.008682046,0.006217162,0.03660015,0.001395631,-0.008468912,-1.33E-10,-1.66E-09,-1.17E-09,-1.48E-09,-4.60E-10,1.43E-10,-2.74E-10,-6.52E-12,0.009735238,1.52E-11,0.006454563,-3.03E-12,2.04E-11,-3.03E-10,-1.53E-10,-6.05E-11,6.07E-10,5.08E-10,1.27E-09,1.82E-09,6.07E-12,2.14E-11,4.67E-10,-0.043950738,0.005111202,5.30E-09,-6.54E-10,5.78E-11,1.20E-09,1.03E-12,-5.58E-11,5.50E-10,-5.24E-12,-1.11E-09,-8.22E-10,3.07E-11,-0.002537877,5.30E-10,-8.69E-11,4.82E-12,2.46E-11,-1.43E-09,3.73E-11,2.35E-11
0.002534764,-2.39E-11,3.73E-12,-0.003889096,-0.000668984,-0.001315453,-5.77E-10,-9.91E-07,0.000534318,-6.74E-05,-0.002306711,-0.002442088,-0.000772726,-0.001411743,0.000484306,0.00127629,0.000602017,5.07E-05,-0.000613504,0.000696136,4.25E-09,-7.19E-06,2.17E-10,-0.00245259,-0.001266512,-0.000982068,0.009372354,-0.00285651,-0.00065172,-0.000168196,0.00032693,-0.000448521,-0.001082287,1.35E-05,1.14E-10,-0.001051245,0.003289764,-0.0049767,-0.001036329,-8.26E-11,0.000794775,-0.000807777,5.72E-11,-2.01E-10,-0.001211722,-0.01828024,0.003656455,-0.001496987,-0.000672357,0.001161436,0.003761026,-6.07E-12,1.23E-05,-0.001626398,0.000142046,-0.000887702,0.000748945,0.000666359,-0.001264358,-1.26E-10,-0.00042212,0.00012855,4.95E-11,0.001841679,1.11E-10,2.22E-05
-5.91E-08,3.16E-10,0.001619129,-1.11E-09,4.06E-10,0.002356611,1.69E-09,-0.01180167,-0.009203718,0.008339158,-0.005792767,4.47E-10,3.56E-09,4.77E-10,4.86E-10,5.24E-07,0.000752774,0.005488874,1.60E-09,-0.001642995,-0.007794809,0.064702392,9.86E-11,5.15E-10,1.48E-08,1.24E-09,2.94E-08,-1.07E-09,1.42E-09,3.55E-10,0.003666603,1.56E-10,0.002670238,1.58E-08,2.66E-09,3.51E-10,8.25E-10,0.017577961,7.81E-10,4.00E-10,-1.44E-08,0.001531129,2.82E-11,4.91E-11,4.69E-10,-0.019366825,0.023145047,0.008144888,-4.38E-10,3.74E-10,-0.046232785,3.45E-11,0.001700462,0.008110067,3.09E-11,-0.000499582,0.008776249,1.56E-10,0.000860799,2.37E-10,-4.62E-10,2.11E-10,1.51E-11,-0.001956798,0.004316737,5.82E-11
-0.017385965,1.89E-10,-1.42E-10,-6.06E-10,-3.37E-10,-0.005319173,1.12E-09,1.07E-09,-0.001702955,-0.00024788,3.77E-09,-1.23E-10,0.002456746,-1.00E-09,1.96E-08,0.003461432,-0.000422704,-0.003991533,-1.14E-08,0.004188825,5.21E-10,0.025870417,4.37E-10,2.03E-09,1.55E-10,-5.90E-10,-7.90E-09,-0.022297067,6.57E-10,-1.28E-10,0.004125733,-7.96E-11,0.001448495,2.97E-11,-2.20E-11,3.29E-10,-5.89E-11,2.89E-10,0.020284602,8.82E-11,1.93E-09,2.50E-10,-2.23E-12,4.13E-11,-5.61E-10,0.011741652,0.002856575,6.82E-10,-1.25E-09,1.03E-10,8.69E-10,2.69E-12,-1.25E-09,0.008974755,7.80E-11,-1.30E-10,0.013573877,2.97E-11,0.004996618,4.23E-10,-1.92E-10,-4.80E-11,-9.95E-12,2.06E-08,1.40E-09,3.57E-11
0.023100478,2.12E-11,7.17E-11,6.31E-10,4.40E-10,0.00231477,7.26E-10,-2.40E-09,-0.010599978,2.24E-11,-3.21E-10,3.45E-10,0.005208479,8.65E-10,0.002461275,4.63E-10,0.00465248,-0.001849747,-0.022505423,0.037262081,1.45E-09,0.006057691,4.23E-11,1.43E-09,-1.64E-09,2.34E-09,-4.28E-09,-5.75E-10,-7.80E-10,1.35E-10,-0.009603343,2.88E-10,-3.70E-10,8.30E-11,7.24E-11,-4.98E-10,-3.13E-10,6.20E-10,0.010197685,0.018828758,5.71E-09,-8.85E-10,1.34E-11,2.78E-11,1.31E-10,0.039027282,-0.013553942,-1.10E-09,1.54E-10,3.03E-11,-2.52E-09,6.55E-12,2.01E-11,1.76E-10,2.05E-11,3.87E-10,-1.05E-09,5.68E-11,0.006701657,5.39E-10,1.33E-08,3.26E-11,1.76E-11,0.001457726,1.76E-10,9.64E-12
-0.030198197,5.50E-11,3.20E-10,-1.10E-08,1.90E-09,-1.31E-09,1.24E-09,-2.18E-09,0.017858114,-3.46E-10,0.006367039,-6.76E-11,9.11E-09,5.80E-10,-4.42E-10,2.77E-09,2.39E-10,0.017006971,0.002982293,0.023759903,0.013768493,0.054760892,9.75E-10,3.63E-09,-0.011448917,3.40E-10,-0.004257686,-1.47E-10,0.001764499,1.92E-10,-0.02050332,2.84E-10,-0.014513092,2.79E-10,1.08E-10,1.22E-11,0.014088838,0.002123401,3.70E-09,1.26E-10,9.43E-10,-7.37E-09,1.63E-11,3.91E-11,9.97E-11,0.011235268,-0.027181951,6.42E-10,2.40E-09,1.80E-10,3.27E-09,8.91E-12,3.19E-10,-4.14E-09,1.43E-11,0.003556251,0.007475004,1.15E-10,-0.004328721,5.79E-10,2.33E-10,1.77E-11,1.37E-11,-4.76E-09,4.00E-10,2.11E-11
-2.78E-07,6.37E-11,2.07E-10,0.029839699,0.004612731,-3.00E-09,1.84E-09,2.34E-09,0.010849434,1.44E-09,-0.011495048,5.71E-10,-0.000982308,7.53E-09,-9.93E-11,-9.16E-10,-0.004187783,-0.002547004,0.008414718,0.003356743,0.006927379,-0.003396314,8.45E-10,8.39E-09,-0.001026812,4.21E-05,0.00224742,0.031412132,0.00765792,0.005124372,0.004448343,1.02E-10,2.33E-09,4.25E-10,4.98E-09,0.000527535,0.053608173,0.003007988,0.003018066,4.32E-10,5.14E-11,0.019630745,2.97E-11,3.72E-11,5.16E-10,0.001518564,0.004013974,-0.000423971,2.12E-09,1.37E-10,-0.031190355,9.41E-11,3.43E-10,0.000561429,1.62E-11,0.002447621,0.000619864,-2.54E-11,0.006653704,2.65E-10,2.63E-10,3.61E-11,1.43E-11,-6.47E-09,3.90E-12,8.91E-11
-4.17E-09,-9.86E-11,8.17E-11,-0.002333549,-3.25E-11,-0.017120749,1.47E-10,1.81E-09,3.40E-09,0.010544981,-0.003940907,-3.96E-10,-0.014444649,-2.34E-09,0.020601056,-0.000114037,-4.01E-09,-0.009716894,-0.010858323,-0.064353572,-0.005089317,0.017877427,1.59E-10,-0.00103597,-2.06E-09,-2.03E-09,-1.60E-09,-0.019513454,-3.63E-10,-1.13E-10,0.019779578,-1.42E-10,-0.002637292,-5.72E-11,-2.51E-11,-1.92E-06,-2.24E-10,-1.16E-09,-6.63E-10,-1.33E-10,-2.89E-09,-0.017062705,1.19E-11,2.89E-12,-1.21E-10,0.016704227,-0.006943254,-0.06450001,2.54E-10,1.04E-12,-8.37E-10,8.97E-13,-2.41E-10,-0.006147976,1.56E-12,-5.00E-10,0.000150665,9.42E-12,-0.025878599,-2.18E-10,-3.34E-11,-5.00E-13,5.31E-13,-8.80E-09,-1.41E-10,-7.84E-12
-4.61E-09,1.83E-11,2.26E-11,-1.85E-10,1.31E-10,-2.35E-09,-2.05E-10,7.83E-11,-2.19E-09,1.91E-09,-7.64E-10,-7.06E-11,4.90E-09,8.79E-11,1.11E-10,-9.37E-10,-2.39E-10,-0.001242935,-2.70E-10,0.045577891,2.06E-09,-0.044166741,-1.37E-10,3.52E-10,2.16E-10,-0.003134813,2.71E-09,-1.31E-10,5.72E-10,7.73E-11,-0.005677582,8.63E-11,2.43E-08,4.57E-11,1.14E-11,2.65E-07,3.38E-09,-1.12E-10,3.02E-11,1.41E-10,6.62E-10,-1.27E-10,5.35E-12,2.70E-11,8.95E-12,-0.013563009,-0.024007842,-0.051792785,1.74E-09,2.24E-11,-1.10E-08,3.05E-12,1.54E-11,8.39E-10,5.13E-12,-6.05E-10,1.75E-10,8.46E-12,7.50E-10,2.18E-10,-2.85E-10,2.21E-11,7.76E-12,2.50E-09,4.64E-11,4.76E-12
-2.05E-09,-1.59E-11,1.47E-10,-0.002909657,5.33E-10,-8.60E-10,4.03E-10,2.63E-10,0.005402117,-1.61E-10,1.19E-09,4.34E-11,-5.19E-09,1.39E-09,-0.000946546,-7.23E-09,-5.55E-10,0.001836353,0.034790709,0.025013871,-3.56E-10,-0.111572307,1.58E-10,-4.06E-10,1.95E-09,0.022697608,0.029032611,2.66E-09,3.95E-09,2.26E-11,-0.006001297,7.05E-12,-0.002819778,5.45E-11,4.22E-11,-2.98E-10,3.39E-11,-2.57E-10,-5.97E-09,2.25E-11,-4.33E-10,1.49E-09,1.30E-12,2.44E-11,9.18E-10,0.121341601,-0.007843388,8.63E-10,1.93E-11,-4.84E-11,1.24E-09,1.78E-13,3.38E-11,1.20E-09,-4.36E-12,-0.002183799,6.09E-10,4.14E-12,1.35E-09,-7.71E-11,-1.18E-10,-1.21E-11,-6.37E-12,-0.001915818,-1.71E-10,-1.25E-11
-0.007716224,-5.62E-11,1.97E-05,0.006948034,1.21E-10,-0.003823848,4.59E-09,1.50E-07,-0.001482284,-0.003333,-0.000202281,0.000165742,-0.001073415,0.009786502,-6.02E-10,0.003367712,-0.000162312,0.002156883,-0.002019618,-0.010778148,0.001289572,-0.001719248,9.05E-10,-4.39E-09,0.000865881,-0.012664613,0.000335694,-0.009997382,-0.000803795,-0.000387325,-0.001148702,0.000775775,0.000319224,6.40E-11,8.92E-11,0.000532679,-1.50E-10,3.46E-10,-3.62E-05,0.000645338,0.001501964,-0.003265187,6.13E-11,0.000481102,0.001175266,0.046238707,-0.000459976,2.43E-08,2.70E-09,-0.001088414,-0.006488288,1.53E-11,2.04E-09,-0.000123443,0.000444117,-0.001238852,-0.00122363,-1.30E-10,0.002502203,2.46E-10,0.001883935,1.38E-10,0.000282001,-0.001687018,4.96E-05,5.95E-11
-1.17E-08,7.83E-11,0.00529043,4.26E-10,0.000580522,0.012403571,1.34E-09,-2.71E-10,1.91E-09,-8.32E-10,0.010775417,-6.79E-09,0.002549135,-2.92E-10,3.44E-13,2.10E-09,1.13E-09,-0.005125395,-0.006392183,0.035398581,0.010864238,0.011663668,3.57E-10,0.045473924,0.007116954,-0.002140721,0.023798669,1.48E-10,3.47E-10,1.71E-10,-0.003856446,6.42E-11,-5.75E-09,7.26E-10,3.31E-10,-0.005482379,2.96E-09,0.00480476,-2.85E-09,0.000203434,0.004124946,5.96E-09,1.77E-11,1.54E-10,0.00539184,-0.026243547,0.040161198,-0.011623285,-1.24E-08,9.43E-11,4.54E-09,1.40E-11,1.97E-10,0.010070944,2.40E-11,3.57E-10,0.009150529,2.54E-10,5.58E-11,1.49E-10,-3.56E-09,4.93E-11,2.55E-11,1.34E-09,3.51E-10,3.16E-11
-0.003166593,-0.000380111,1.77E-09,-0.002284325,-7.65E-10,0.003280154,-0.0071867,-2.23E-08,-0.000773883,0.002064867,-0.001208337,0.00674909,2.63E-09,0.00216078,-0.002521952,0.000228233,-0.000803327,-0.001917612,0.000680102,0.000255892,0.000244626,0.009317853,-0.008287267,-0.002288832,-0.000608896,-0.005241249,0.002311484,-0.002382091,-0.00042246,-0.000280705,0.00165441,-2.77E-08,0.000931739,0.000934014,-0.00024927,0.00089361,1.83E-09,-1.12E-05,-0.000499024,-0.001429132,-0.000321165,-2.02E-06,-6.61E-11,0.000677153,-0.000266897,0.00505824,-0.000814524,0.013051004,0.000413422,-5.17E-05,-0.022893309,-3.28E-12,-0.000772322,0.000603835,-0.000193392,-1.21E-08,-3.07E-05,-3.45E-11,-9.76E-05,-0.000777088,-0.000400784,4.27E-11,5.97E-11,0.000568467,-4.05E-11,-0.000567482
-8.59E-09,6.27E-11,2.10E-10,9.79E-10,2.68E-10,-1.60E-09,1.09E-10,-3.09E-09,-7.03E-09,-0.003016296,3.78E-10,-1.71E-10,5.74E-10,1.03E-09,1.00E-10,1.43E-09,0.00437941,-0.004604903,-0.004844954,-0.019036941,2.06E-09,0.056301208,1.17E-10,6.25E-10,5.00E-05,4.92E-09,1.72E-09,4.62E-10,6.25E-10,9.32E-11,-0.003043163,1.94E-10,1.36E-09,1.05E-10,7.38E-11,6.46E-10,-0.032294185,0.01369054,1.28E-09,1.84E-10,1.78E-10,-1.02E-09,1.38E-11,7.51E-11,1.07E-10,-0.02882298,0.01264283,-0.012546501,2.26E-08,5.61E-11,-4.79E-10,7.06E-12,1.06E-10,-5.67E-10,1.68E-11,0.012236045,-0.000637212,3.42E-11,0.025543768,1.96E-10,5.86E-10,2.34E-11,9.48E-12,-2.91E-10,2.09E-10,8.51E-12
0.070215566,3.10E-11,3.40E-11,1.88E-09,1.29E-10,6.47E-10,2.18E-10,2.22E-09,3.48E-09,-1.36E-10,2.83E-09,-1.63E-10,2.32E-09,1.50E-09,-9.35E-11,1.09E-09,4.30E-09,1.31E-08,-0.003791869,0.076965864,0.008010077,0.001552535,-1.80E-10,-5.12E-12,1.72E-08,3.32E-10,9.04E-09,-7.16E-11,1.52E-10,4.50E-11,0.004588216,6.09E-11,3.37E-10,4.66E-12,1.53E-11,4.87E-10,-2.19E-08,-6.26E-11,6.75E-10,-2.94E-12,5.31E-10,3.84E-09,4.26E-12,5.50E-12,1.34E-10,0.053532527,0.066772037,4.24E-10,-1.10E-10,6.84E-11,1.62E-09,3.66E-12,1.02E-10,2.54E-08,8.30E-12,-1.57E-10,-4.79E-11,2.12E-11,7.91E-11,1.50E-10,2.87E-10,9.80E-12,9.49E-12,9.19E-10,2.31E-11,4.94E-12
0.001989561,-4.28E-10,-0.000478277,3.73E-06,-8.23E-05,1.65E-05,-0.002414799,0.001989142,-0.000884329,-0.000516555,0.000344193,-0.0009376,3.11E-05,-0.000402881,0.0005408,-0.000584022,0.000227631,9.92E-05,-0.001096075,0.000318015,-0.000384974,0.004142657,2.44E-05,-0.000378802,-4.67E-05,0.001207873,-0.001476388,3.22E-11,0.000416751,0.000191636,-0.000686827,1.72E-05,0.000175904,-0.000206438,-1.91E-05,-0.000619824,-0.001097695,-0.000606782,0.000207628,0.000343347,0.000510279,0.00023111,-0.000174231,-0.000488291,-0.000248697,-0.004046737,-0.000380947,-0.012366976,-0.000106512,-9.07E-12,-0.00151734,-0.000163876,-0.000447793,-0.000301824,8.57E-11,-0.000493757,0.000748209,0.000417362,0.000456405,2.41E-11,0.0002361,4.77E-11,-1.08E-10,0.000273394,-0.00032401,7.71E-05
4.32E-08,6.60E-12,5.04E-11,-1.77E-09,9.99E-11,-9.15E-10,3.39E-10,-2.17E-10,-0.012446962,-6.70E-10,-2.74E-10,-5.18E-11,-1.86E-09,-3.21E-12,-1.17E-10,-5.45E-10,1.47E-10,3.37E-08,-1.31E-08,-0.046941758,6.74E-09,-0.07604637,-2.99E-10,-1.11E-10,-5.85E-10,-1.91E-09,9.90E-09,-2.77E-10,-9.49E-10,-2.55E-11,0.021704581,4.30E-11,-1.54E-09,4.06E-11,2.85E-11,7.21E-10,4.52E-10,-3.27E-10,-4.26E-10,3.27E-10,-2.79E-10,-3.16E-09,3.86E-12,2.01E-11,-1.21E-11,0.034686386,-0.053441176,-0.001476013,8.65E-10,3.57E-11,-1.89E-09,1.32E-12,3.31E-12,-2.84E-10,-1.62E-12,-1.19E-09,1.97E-09,4.19E-12,-8.06E-10,5.67E-11,1.99E-10,1.57E-11,4.80E-12,-4.98E-09,-2.89E-11,2.82E-13
0.000246714,2.95E-11,3.25E-10,1.56E-09,1.01E-08,0.000295494,-1.56E-09,5.12E-11,-0.003135774,-0.001864282,-0.009630537,1.65E-10,-0.000737543,-1.51E-09,-2.21E-11,3.12E-09,-4.92E-10,0.008385612,-0.023012484,0.013851138,6.49E-10,0.020210984,-2.64E-10,-1.49E-08,2.95E-09,0.004780672,-1.42E-08,8.17E-10,-2.63E-09,2.33E-10,-0.002676449,9.61E-11,-0.006245726,4.02E-10,1.34E-10,6.41E-10,5.47E-10,0.009999087,8.25E-12,-7.27E-12,4.84E-11,-0.00031701,1.56E-11,4.19E-11,6.30E-11,-0.016791792,0.002049151,-0.003345449,0.000339378,1.17E-10,0.039350874,1.43E-11,6.08E-10,6.97E-09,6.90E-11,-2.96E-09,-6.16E-10,1.20E-10,6.59E-10,5.55E-10,-2.06E-09,5.31E-11,1.06E-11,-3.06E-10,5.04E-10,3.28E-11
0.069008273,1.52E-10,9.04E-11,0.021211492,1.07E-10,4.29E-09,5.54E-10,-4.63E-10,0.022473368,8.25E-09,0.022727141,5.59E-10,0.031025269,2.62E-09,6.18E-10,0.012580863,1.23E-09,0.030312442,0.029546238,0.055461309,0.030773918,0.023418963,2.84E-10,4.37E-09,0.035192263,0.007428781,0.002871663,0.030866934,0.003450259,2.11E-11,0.025065997,1.87E-10,0.026793384,6.93E-11,4.56E-11,0.009218927,0.021689067,1.66E-09,0.014903694,3.61E-10,5.12E-10,0.043484187,9.33E-13,2.40E-11,3.78E-10,-0.021579206,0.030191738,8.49E-12,4.11E-10,3.66E-11,9.58E-10,3.83E-12,9.02E-11,0.017843031,1.72E-11,0.012530821,0.024940203,2.29E-11,0.031300733,1.73E-10,8.89E-10,4.08E-12,4.32E-13,0.045165122,2.84E-10,2.73E-11
-6.54E-09,2.41E-11,4.63E-11,5.82E-11,4.70E-11,1.62E-09,2.29E-10,5.77E-10,-3.47E-10,2.32E-10,0.006912764,-2.18E-11,1.19E-09,1.13E-09,2.03E-10,1.32E-09,1.40E-09,0.032702492,-0.008608706,0.095686942,1.18E-08,0.161944377,1.86E-10,-1.15E-10,9.72E-09,1.21E-09,-0.015788338,1.74E-10,3.85E-10,4.59E-11,-0.014115495,5.20E-11,0.016472566,4.61E-11,2.72E-11,1.62E-09,-5.99E-10,7.36E-10,4.68E-09,1.75E-10,1.05E-09,2.49E-09,1.20E-12,7.87E-12,1.24E-10,0.045987211,0.059681359,9.43E-10,1.22E-09,1.04E-11,-3.78E-10,4.51E-12,3.72E-11,2.99E-09,1.89E-11,1.94E-09,0.010054276,1.53E-11,3.34E-10,1.27E-10,4.04E-10,-2.23E-12,4.89E-12,0.037680402,1.05E-10,6.25E-12
1.46E-09,-5.17E-11,7.04E-11,-1.38E-09,-3.97E-12,-5.94E-09,2.68E-10,5.28E-09,-9.18E-10,2.92E-09,-4.62E-08,2.53E-10,2.43E-09,-1.53E-09,1.44E-10,3.51E-10,-2.58E-09,-1.84E-08,-2.73E-08,0.013168205,-2.14E-10,0.093016447,6.32E-11,1.38E-09,-0.009322447,-1.18E-09,-3.85E-09,-6.05E-11,1.31E-10,-2.22E-11,-0.014769136,-2.26E-11,6.91E-11,-6.65E-12,1.41E-11,8.30E-10,1.31E-09,-1.43E-09,8.17E-10,-3.00E-11,-1.43E-10,-6.37E-09,1.50E-12,4.21E-12,-9.94E-11,0.037408793,0.00308813,-4.05E-11,-7.51E-10,3.22E-12,2.77E-09,2.06E-12,-2.63E-11,-5.32E-10,1.83E-12,7.99E-12,1.01E-09,1.75E-11,0.016946746,-2.35E-11,2.64E-10,-4.10E-12,3.75E-12,-1.40E-10,3.09E-11,5.61E-12
0.087336117,3.18E-11,7.13E-11,3.22E-09,4.61E-11,8.70E-09,1.51E-10,-2.39E-09,0.035718323,-0.001333866,0.025441764,3.17E-10,7.24E-09,-1.69E-09,-2.90E-10,1.14E-09,3.70E-10,0.001271716,3.70E-09,0.024854237,0.004042708,-0.003874929,1.09E-10,6.52E-10,6.78E-08,2.30E-09,3.80E-10,9.10E-09,1.82E-09,9.19E-12,0.017455445,1.02E-10,0.027912306,1.63E-11,1.43E-12,9.75E-10,0.000190569,1.22E-09,1.91E-10,4.10E-11,4.62E-10,-3.42E-09,3.94E-12,1.52E-11,1.23E-10,-0.008789384,-0.016729227,-1.42E-10,2.68E-10,5.74E-11,-2.78E-09,1.84E-12,6.67E-11,3.92E-09,7.51E-12,0.011237254,0.018365585,1.88E-11,0.007265672,1.31E-10,7.75E-10,3.55E-12,5.07E-12,0.018116224,1.48E-10,1.13E-11
1.56E-09,-9.30E-13,1.56E-10,-4.61E-08,1.26E-10,0.000851336,4.82E-10,9.69E-10,-2.84E-09,0.0059856,2.73E-12,-1.47E-10,-5.79E-10,4.32E-10,-3.05E-10,5.11E-10,5.76E-10,-1.91E-09,-3.80E-09,-0.044889946,-3.70E-09,0.035827155,7.11E-10,1.57E-09,6.80E-10,-1.87E-08,-1.22E-09,-6.66E-11,5.73E-11,3.04E-11,-0.01669627,1.11E-11,-2.26E-09,6.16E-11,3.95E-11,-5.15E-09,1.82E-09,8.99E-10,-5.58E-10,2.36E-11,5.35E-11,-4.30E-09,6.27E-12,2.78E-11,4.63E-11,-0.017474365,-0.012789811,-4.48E-10,-1.34E-09,4.34E-11,2.29E-09,4.24E-12,2.48E-11,-1.63E-09,1.73E-11,-3.78E-10,0.000121059,2.54E-11,-2.96E-09,-4.12E-11,5.72E-11,2.99E-12,6.57E-12,-5.66E-09,4.04E-10,1.06E-11
-0.014208875,1.92E-11,7.49E-11,6.89E-10,2.46E-10,-3.31E-10,2.35E-10,1.12E-09,1.17E-09,0.013396011,0.007465554,-3.29E-12,0.005736801,7.23E-10,-8.99E-11,1.76E-09,4.81E-10,0.01159832,0.000419891,-0.002280143,-1.67E-09,0.080379562,-1.16E-10,-1.18E-11,0.013117368,0.037130206,-4.17E-10,-2.55E-10,7.86E-10,3.46E-11,0.002766669,8.73E-11,0.005145062,4.87E-11,9.71E-12,4.98E-09,1.28E-10,3.01E-10,2.65E-09,2.66E-10,3.03E-10,-2.62E-09,8.14E-12,3.21E-12,1.55E-10,0.05368911,0.012882715,-0.02691577,3.03E-10,4.93E-11,4.35E-09,4.68E-12,5.98E-11,3.93E-10,7.08E-12,9.40E-10,1.87E-09,4.68E-11,-0.004205416,2.14E-10,4.61E-10,1.45E-11,7.14E-12,-3.46E-10,1.53E-11,1.18E-11
0.060426261,5.24E-12,5.10E-11,-2.49E-09,4.09E-11,-8.91E-10,-2.43E-10,-1.55E-11,7.41E-10,0.003805246,-0.0076847,-2.74E-10,-4.71E-10,-2.38E-10,-8.21E-12,7.17E-10,9.06E-10,1.05E-09,2.36E-09,0.062403667,-1.95E-09,0.175796628,4.78E-10,2.59E-10,-1.20E-05,-3.31E-10,0.056025434,-4.97E-10,-1.88E-11,6.18E-11,0.015153429,2.60E-11,0.005731024,9.52E-12,6.45E-12,5.21E-10,6.86E-11,-3.78E-11,-1.87E-10,-7.86E-13,1.14E-09,-1.11E-09,3.58E-12,-4.10E-12,-6.75E-11,-0.083935174,-0.033456456,5.21E-08,5.95E-10,-3.01E-11,5.97E-10,-1.14E-14,-1.91E-11,-9.49E-10,-1.63E-12,2.06E-10,-0.003145579,8.36E-12,0.003103279,2.86E-10,1.66E-10,4.54E-12,2.59E-12,-2.20E-09,-5.30E-11,-2.28E-12
4.90E-09,4.50E-11,5.35E-11,7.35E-10,1.08E-11,-3.74E-09,-4.74E-11,-7.67E-10,5.51E-09,1.72E-10,0.029639458,2.18E-10,-4.96E-10,1.83E-09,-2.86E-12,5.86E-10,7.06E-11,2.82E-09,-9.11E-10,0.026747018,-1.60E-09,0.032829155,3.20E-11,1.09E-09,2.36E-09,-1.13E-10,-1.71E-09,2.23E-10,2.74E-10,2.27E-12,0.042529735,2.57E-11,2.99E-10,2.54E-11,2.95E-11,1.63E-09,-3.79E-10,6.06E-10,3.55E-09,3.24E-11,7.76E-11,8.94E-10,5.21E-12,9.90E-12,4.21E-11,0.043465045,0.02982431,-7.52E-10,3.78E-10,-1.72E-12,-5.98E-10,9.29E-13,2.40E-11,5.15E-09,6.87E-12,1.53E-09,0.001672293,1.43E-11,0.011198215,4.87E-11,1.08E-08,4.94E-12,9.87E-13,5.07E-10,1.15E-11,2.41E-12
-6.42E-10,-6.96E-12,2.22E-11,3.33E-10,3.19E-11,6.53E-10,-4.94E-11,5.73E-10,4.21E-09,1.83E-10,-6.33E-10,-2.46E-10,-8.42E-10,-1.60E-10,-1.57E-10,-6.14E-10,-8.68E-10,-0.001173834,2.57E-09,-0.000431647,-2.75E-09,-0.194128767,2.96E-10,7.48E-10,0.002255964,3.06E-09,-6.47E-10,3.98E-11,1.22E-11,4.38E-11,0.004967401,-3.81E-11,1.66E-09,2.63E-11,1.13E-11,2.16E-10,2.19E-10,3.72E-10,-7.02E-10,1.11E-11,-4.57E-10,-4.60E-10,2.43E-12,4.71E-12,-1.63E-11,-0.027834411,0.02635302,-2.52E-09,5.87E-14,6.69E-12,-4.06E-10,1.35E-12,2.06E-11,-1.61E-09,8.65E-13,2.84E-09,-8.73E-09,3.72E-12,1.67E-09,8.69E-11,1.03E-11,2.12E-12,-1.88E-12,-1.80E-08,8.09E-12,-4.79E-13
5.27E-08,-2.99E-12,2.01E-11,-4.13E-10,-3.11E-12,1.12E-09,-1.42E-11,1.61E-09,2.84E-10,-6.18E-11,-1.29E-09,-1.57E-10,-1.42E-09,-4.98E-10,1.16E-10,-9.83E-10,-2.67E-10,0.027921156,0.002934981,0.005643556,5.42E-10,-0.077352492,5.52E-11,-1.44E-11,-1.69E-09,-2.91E-10,-1.04E-08,6.04E-11,2.74E-11,-2.19E-12,-0.016844166,2.93E-11,8.35E-10,2.36E-11,8.41E-12,-3.04E-10,9.29E-10,5.64E-11,-1.52E-09,-1.24E-10,-3.74E-10,1.75E-09,2.43E-12,6.03E-12,-8.18E-11,-0.028217301,-0.006441381,-4.33E-10,-6.65E-12,-8.38E-12,-9.88E-10,1.22E-12,2.08E-12,4.34E-10,-3.12E-13,-1.48E-09,-5.74E-10,7.38E-12,-1.65E-09,1.63E-10,1.51E-10,3.01E-13,9.25E-12,4.92E-10,2.15E-11,-4.04E-12
0.030331464,8.98E-11,1.41E-10,2.74E-08,1.05E-10,3.08E-09,3.25E-10,-1.80E-09,0.071012019,3.08E-10,0.036128064,1.79E-09,0.004204656,1.16E-08,2.35E-10,0.022276438,0.004539806,0.053552018,0.039477396,0.072759676,0.020317525,0.044445957,3.20E-10,1.73E-09,0.061758348,0.014009844,4.78E-09,2.47E-10,2.15E-09,8.48E-11,0.077955443,1.12E-10,0.028027616,7.57E-11,2.51E-11,0.010854208,0.042492632,9.10E-10,1.47E-09,3.44E-10,0.002776051,0.014394885,6.42E-12,1.48E-11,4.18E-10,-0.01183008,0.030116794,-1.53E-10,0.013395813,6.07E-11,2.78E-09,3.32E-12,9.01E-11,0.027140579,2.43E-11,0.029462797,0.014793252,1.70E-11,0.027607215,1.60E-10,3.78E-10,4.64E-12,9.17E-12,0.048236016,2.72E-10,1.29E-11
-4.54E-09,1.61E-11,4.60E-11,-1.30E-09,9.14E-11,-6.34E-10,2.32E-10,2.41E-09,0.003526554,2.77E-10,-2.52E-10,7.46E-11,-5.29E-10,1.12E-09,-2.75E-10,2.59E-10,2.08E-10,0.008652267,-1.63E-09,-0.0365164,1.65E-08,-0.078212882,1.36E-10,9.38E-11,-9.40E-10,1.97E-09,3.88E-09,4.93E-10,9.09E-11,-1.44E-11,-0.038612044,9.48E-12,-1.65E-09,2.49E-11,1.71E-11,2.27E-10,1.04E-10,6.22E-11,-6.23E-10,-8.99E-11,1.71E-10,-2.84E-10,3.94E-12,-4.58E-12,6.26E-11,0.037512525,0.02038553,5.59E-11,-2.35E-10,1.37E-11,5.02E-10,-6.43E-13,2.51E-11,-2.46E-09,1.98E-12,8.07E-10,-0.002372696,3.11E-12,-0.019420296,5.79E-11,-1.71E-10,4.33E-12,2.73E-12,4.50E-10,2.99E-11,2.67E-12
0.03055859,4.71E-11,2.92E-11,4.30E-10,2.44E-11,8.69E-10,2.30E-10,2.40E-09,5.07E-10,7.51E-11,0.003672075,5.51E-10,2.69E-10,3.66E-09,2.17E-10,9.10E-08,1.33E-09,9.94E-10,0.00715171,0.047762611,0.0169551,0.027865416,3.06E-10,1.27E-09,1.06E-09,1.58E-09,0.005335855,-3.98E-10,5.76E-10,2.17E-11,0.068544562,4.50E-11,0.018544699,4.40E-11,1.16E-11,2.94E-10,4.35E-11,5.21E-10,1.43E-09,8.68E-11,3.32E-10,8.10E-09,2.69E-12,1.93E-11,6.84E-11,-0.014212777,0.017348716,4.10E-10,6.33E-10,2.30E-11,9.52E-10,1.22E-12,2.49E-11,2.61E-09,8.30E-12,0.061670999,0.034591554,1.16E-11,0.006188139,1.66E-10,4.09E-13,-2.40E-12,8.51E-12,0.033506964,6.67E-11,1.68E-11
0.06919952,-9.28E-09,-0.003515444,0.002694052,-1.03E-08,9.29E-10,0.0009217,0.004772846,-0.000411514,0.002257792,0.001622833,0.009749645,-0.001944987,0.007925019,-0.001634715,-0.000588508,8.28E-05,-0.002431571,0.015365941,0.016527356,0.013425826,0.011778288,2.43E-08,0.00527812,0.003901532,-0.000639657,-0.009992932,1.70E-10,-0.001404624,-0.001033863,0.001645789,-1.05E-09,0.003120207,0.00090974,-2.63E-10,0.004201028,1.94E-09,0.00052474,-0.001248728,0.000209852,-3.00E-09,0.00642449,7.35E-11,1.10E-10,0.001605954,-0.00539758,0.001604324,0.030972784,-0.002820785,1.47E-09,1.34E-08,3.34E-10,0.002443777,0.001181157,-1.12E-11,-0.000328711,-0.003243056,0.000596762,-0.004174172,-0.000116145,-0.001401401,-1.20E-10,9.58E-11,0.000521296,-2.10E-10,4.81E-10
0.03251331,1.92E-10,6.87E-11,0.001125933,8.38E-11,9.58E-09,3.91E-10,7.73E-10,7.61E-08,2.33E-10,0.00291875,-1.06E-10,1.20E-08,1.68E-09,1.51E-10,0.001846671,0.000926479,0.004626073,-0.001615151,0.041175134,0.025560451,0.100134097,6.42E-10,0.006858312,0.006323346,0.004107087,0.088414079,3.22E-10,4.31E-10,4.31E-11,0.015497948,3.86E-11,2.99E-08,5.87E-11,1.88E-11,0.003668404,6.36E-10,0.008348543,2.74E-09,2.57E-10,8.69E-09,0.009428215,4.52E-12,7.86E-12,6.26E-11,0.023091576,0.037473893,0.009271944,9.36E-10,4.64E-11,4.49E-10,9.88E-14,3.63E-11,8.48E-09,1.20E-11,-1.71E-10,0.004965843,9.92E-12,0.027042978,1.17E-10,1.28E-08,8.09E-12,9.25E-12,0.002332689,7.01E-11,1.57E-11
0.021053305,5.64E-12,3.24E-10,2.74E-10,1.04E-10,2.59E-09,1.55E-10,1.95E-09,-1.95E-09,-6.29E-10,3.67E-10,-2.72E-10,7.96E-10,3.10E-09,1.07E-10,2.76E-09,-7.68E-11,-2.47E-09,5.43E-09,-0.017224111,-8.22E-10,0.220792408,1.66E-10,3.39E-10,-3.02E-12,2.77E-10,-4.56E-09,-2.72E-11,4.60E-07,4.26E-11,-0.000733417,6.13E-11,-4.19E-09,3.29E-11,2.47E-11,1.62E-10,-0.067267113,2.34E-10,4.58E-10,-8.62E-11,2.52E-10,0.008948483,7.09E-12,-5.44E-13,2.61E-10,0.00305778,-0.005022869,-3.32E-10,1.10E-09,5.40E-11,-1.15E-08,6.14E-12,2.11E-11,1.54E-09,9.31E-12,1.80E-09,4.48E-09,3.10E-11,-9.48E-10,7.43E-11,5.03E-11,1.25E-11,8.20E-12,-6.68E-10,4.85E-11,8.32E-12
-0.01037728,-3.43E-10,0.000699849,0.081073469,-0.00315493,-0.002008164,5.64E-10,5.55E-09,-0.001913559,0.006532381,-0.005179227,0.000584636,-0.000378281,-4.25E-09,-6.49E-10,0.007280959,-0.00182732,-0.000224225,0.000188458,-0.013916533,-0.007765501,-0.000152596,7.48E-10,-0.012513998,0.003416563,0.004009585,1.62E-08,-0.001072651,-0.001388332,2.72E-10,0.008673207,2.18E-10,0.001947865,9.12E-11,5.30E-10,-0.00509774,8.33E-10,0.004870954,-0.000554844,-3.53E-10,2.14E-09,-0.000727282,2.12E-11,8.34E-11,-1.07E-09,-0.004264571,0.002427262,-0.010054331,0.001294896,4.75E-11,3.14E-09,-2.88E-12,2.45E-10,-0.001805994,1.17E-10,-8.53E-10,-0.003085658,1.74E-10,-0.000391748,-0.001005912,0.000756088,5.41E-11,8.50E-12,0.001202069,-1.15E-10,1.45E-11
0.003493656,6.21E-12,3.27E-11,-1.30E-10,0.01036624,-6.68E-10,1.46E-10,5.60E-09,0.009953225,-3.13E-10,1.65E-09,-6.24E-11,0.005458972,-1.78E-09,9.74E-11,3.76E-09,-4.57E-11,-3.36E-09,1.31E-08,-0.019360531,-4.88E-10,0.143092069,-1.82E-10,-4.40E-10,-5.11E-09,0.006974419,-0.081047451,-3.52E-09,2.75E-09,5.15E-11,0.036056214,2.50E-11,-6.99E-09,1.13E-10,4.13E-11,-4.72E-10,-2.82E-10,7.37E-10,8.06E-10,7.04E-11,8.96E-10,3.17E-09,6.71E-12,3.88E-11,2.38E-10,0.119194771,0.003316324,-4.71E-09,9.39E-10,5.16E-11,-5.63E-10,5.26E-12,5.54E-11,-3.83E-09,3.79E-12,-5.53E-09,-2.58E-10,1.16E-11,-0.00904996,8.86E-11,-2.12E-11,1.12E-11,1.31E-11,-3.93E-09,8.63E-11,5.66E-12
0.005837897,3.62E-08,0.002540865,0.008498884,0.000895966,0.099860982,-1.07E-08,0.02810302,-0.001716635,0.004855756,-6.97E-10,-1.22E-09,0.00317111,-0.015430133,1.59E-10,0.014648202,5.51E-05,0.005434337,1.31E-09,0.015819843,6.07E-09,-0.01165025,-5.42E-10,1.24E-09,-4.59E-09,-1.97E-09,-3.61E-09,8.03E-10,4.35E-10,0.001919905,-0.00143374,8.73E-09,0.001841598,0.006839738,0.000850824,0.005404107,-0.016392393,0.00372846,0.002778623,1.27E-11,0.00451627,-0.00356119,1.88E-10,0.000975965,0.00161214,0.007289291,-0.004547811,0.005585037,0.004955641,3.65E-09,3.00E-09,2.63E-10,0.005666264,1.60E-09,3.65E-10,0.000230894,-3.92E-09,0.00296967,0.002975785,0.003542275,0.00064409,0.002018151,1.20E-10,-0.001962318,0.002530294,2.85E-10
0.004176896,0.000186336,-0.000120488,-0.000125335,-0.000254975,-0.000845652,0.100194764,0.01157296,-0.000700334,0.000316708,0.000683555,1.25E-10,-2.63E-09,0.002474825,-0.000389049,-0.00108195,-0.000394341,-0.000716848,0.001725487,-0.000224738,0.00152543,0.005845037,0.01225026,8.72E-10,-0.000937013,0.000170005,0.00239028,0.002213719,0.001087156,-0.000310943,0.001635701,-0.000361341,0.000587012,8.35E-11,0.000766513,-4.95E-05,0.004480979,-0.000132843,-0.000392995,-0.000956411,0.001048238,0.000192026,2.88E-12,-0.00048388,-0.000442997,0.004441376,0.000802502,0.01836564,0.000862494,-0.000165281,0.024226284,1.03E-11,-3.27E-11,-4.28E-05,-0.000305948,0.000484488,0.000408851,-4.37E-10,-1.37E-05,0.000333343,-6.93E-05,4.83E-05,0.000283872,-0.000306621,8.20E-05,1.81E-10
0.001587475,-2.37E-11,0.000373185,0.000209152,-0.000782752,0.001917237,0.013184681,0.126349273,0.000306096,0.000222036,0.001956505,0.000873571,0.000195848,0.001119288,8.98E-05,0.001952284,-9.12E-10,0.001436714,-0.000500069,0.005481267,0.000826929,0.00689245,1.05E-08,-0.000708618,-0.000166931,-0.002274009,0.01162947,0.017461005,0.001075404,0.000766451,-0.000397425,0.000499663,-0.000537748,0.000262095,0.00017969,2.19E-09,0.033275758,-0.000481112,0.000238606,0.001080587,-2.41E-08,-0.000725207,1.34E-11,0.001097033,0.000767538,-0.009930049,-0.000747731,0.010678294,0.000236753,-7.77E-05,-0.0010668,0.00058272,1.58E-10,-4.55E-06,-3.31E-11,-0.000440504,0.000379891,-6.21E-05,0.001075231,-0.000270314,-0.000190578,-0.00037407,-4.46E-05,0.000838557,0.000925287,1.65E-09
0.005010634,3.28E-10,2.12E-09,-0.005671502,0.006198247,-7.56E-10,1.77E-09,9.16E-09,0.089819558,3.52E-05,-1.39E-09,0.003135771,1.83E-08,-7.77E-10,0.005570594,0.003487099,0.002990986,-0.001280142,-0.001636836,0.002997154,0.005943392,-0.022752482,6.77E-10,0.017543892,0.005410181,9.59E-10,-4.52E-07,-1.76E-10,0.017399945,3.93E-09,0.008448394,2.02E-10,-0.008138299,0.000699159,3.78E-10,-9.04E-10,-0.035798549,0.006300267,0.003456724,-9.21E-10,0.017382993,-6.59E-10,2.24E-11,1.18E-10,0.002980846,-0.007042241,-0.006883352,-0.004463284,0.000572447,1.03E-10,-1.13E-08,6.92E-12,0.004655812,1.57E-09,3.02E-11,0.006629468,3.43E-08,9.69E-11,0.000852251,2.55E-10,3.39E-10,5.24E-11,3.71E-11,0.005399504,1.96E-09,7.06E-11
-0.041261641,-9.93E-11,-7.65E-11,-8.53E-10,-2.01E-10,-0.000899246,8.87E-11,1.77E-09,-0.008774142,0.041098788,-0.003073106,-3.23E-12,-0.006518818,7.40E-09,1.87E-09,-0.011272069,5.74E-10,-0.010811436,3.60E-11,-0.041904145,1.88E-08,0.046093163,-2.06E-10,-2.44E-09,-0.001394339,-3.18E-08,0.112323828,-5.33E-11,-2.51E-10,-7.96E-11,-0.037358058,-5.31E-11,-0.0011631,-4.38E-11,-6.02E-11,-4.60E-10,5.31E-11,-1.46E-09,-0.004197912,-3.62E-11,-1.81E-10,-0.009362518,9.74E-12,-2.37E-12,-1.09E-10,-0.0462064,-0.020404251,1.44E-09,-3.95E-10,-6.91E-11,6.25E-09,-8.32E-13,-9.05E-11,-1.58E-09,-8.52E-12,-3.50E-09,-0.017319915,-3.61E-11,-2.41E-09,1.18E-10,-7.08E-10,-4.40E-12,2.03E-11,-0.006730281,-8.83E-11,-5.04E-12
0.037238583,-5.55E-11,1.17E-10,1.73E-09,6.59E-11,0.013301342,2.05E-10,-1.27E-09,0.025225082,0.018441281,0.040649326,6.72E-10,3.44E-10,2.76E-08,5.63E-11,6.52E-10,1.49E-09,0.013572821,0.025983854,0.022201195,0.014457679,0.102950203,3.55E-10,4.47E-09,6.26E-10,1.52E-09,0.035939989,1.32E-09,0.003531565,7.02E-12,-0.001440894,-3.30E-11,-5.88E-09,1.61E-10,4.73E-11,-0.008169684,3.88E-10,0.031088408,-0.008261778,-0.001430418,0.011000827,0.002076314,4.64E-12,8.01E-12,4.38E-10,0.057757666,0.005638867,-6.48E-10,0.001435932,-3.62E-11,0.052252541,1.03E-12,1.86E-10,0.012805738,1.95E-11,1.16E-10,0.003500706,6.87E-11,-0.016008069,-1.64E-10,1.28E-10,1.03E-11,-3.54E-14,-0.003401542,3.00E-10,2.38E-11
